/* Generated by Edge Impulse
 *
 * Permission is hereby granted, free of charge, to any person obtaining a copy
 * of this software and associated documentation files (the "Software"), to deal
 * in the Software without restriction, including without limitation the rights
 * to use, copy, modify, merge, publish, distribute, sublicense, and/or sell
 * copies of the Software, and to permit persons to whom the Software is
 * furnished to do so, subject to the following conditions:
 *
 * The above copyright notice and this permission notice shall be included in
 * all copies or substantial portions of the Software.
 *
 * THE SOFTWARE IS PROVIDED "AS IS", WITHOUT WARRANTY OF ANY KIND, EXPRESS OR
 * IMPLIED, INCLUDING BUT NOT LIMITED TO THE WARRANTIES OF MERCHANTABILITY,
 * FITNESS FOR A PARTICULAR PURPOSE AND NONINFRINGEMENT. IN NO EVENT SHALL THE
 * AUTHORS OR COPYRIGHT HOLDERS BE LIABLE FOR ANY CLAIM, DAMAGES OR OTHER
 * LIABILITY, WHETHER IN AN ACTION OF CONTRACT, TORT OR OTHERWISE, ARISING FROM,
 * OUT OF OR IN CONNECTION WITH THE SOFTWARE OR THE USE OR OTHER DEALINGS IN THE
 * SOFTWARE.
 */
// Generated on: 14.02.2024 02:49:55

#include <stdio.h>
#include <stdlib.h>
#include "edge-impulse-sdk/tensorflow/lite/c/builtin_op_data.h"
#include "edge-impulse-sdk/tensorflow/lite/c/common.h"
#include "edge-impulse-sdk/tensorflow/lite/micro/micro_mutable_op_resolver.h"
#include "edge-impulse-sdk/porting/ei_classifier_porting.h"

#if EI_CLASSIFIER_PRINT_STATE
#if defined(__cplusplus) && EI_C_LINKAGE == 1
extern "C" {
    extern void ei_printf(const char *format, ...);
}
#else
extern void ei_printf(const char *format, ...);
#endif
#endif

#if defined __GNUC__
#define ALIGN(X) __attribute__((aligned(X)))
#elif defined _MSC_VER
#define ALIGN(X) __declspec(align(X))
#elif defined __TASKING__
#define ALIGN(X) __align(X)
#elif defined __ICCARM__
#define ALIGN(x) __attribute__((aligned(x)))
#endif

#ifndef EI_MAX_SCRATCH_BUFFER_COUNT
#ifndef CONFIG_IDF_TARGET_ESP32S3
#define EI_MAX_SCRATCH_BUFFER_COUNT 4
#else
#define EI_MAX_SCRATCH_BUFFER_COUNT 4
#endif // CONFIG_IDF_TARGET_ESP32S3
#endif // EI_MAX_SCRATCH_BUFFER_COUNT

#ifndef EI_MAX_OVERFLOW_BUFFER_COUNT
#define EI_MAX_OVERFLOW_BUFFER_COUNT 10
#endif // EI_MAX_OVERFLOW_BUFFER_COUNT

using namespace tflite;
using namespace tflite::ops;
using namespace tflite::ops::micro;

namespace {

#if defined(EI_CLASSIFIER_ALLOCATION_STATIC_HIMAX) || defined(EI_CLASSIFIER_ALLOCATION_STATIC_HIMAX_GNU)
constexpr int kTensorArenaSize = 2736;
#else
constexpr int kTensorArenaSize = 1712;
#endif

#if defined(EI_CLASSIFIER_ALLOCATION_STATIC)
uint8_t tensor_arena[kTensorArenaSize] ALIGN(16);
#elif defined(EI_CLASSIFIER_ALLOCATION_STATIC_HIMAX)
#pragma Bss(".tensor_arena")
uint8_t tensor_arena[kTensorArenaSize] ALIGN(16);
#pragma Bss()
#elif defined(EI_CLASSIFIER_ALLOCATION_STATIC_HIMAX_GNU)
uint8_t tensor_arena[kTensorArenaSize] ALIGN(16) __attribute__((section(".tensor_arena")));
#else
#define EI_CLASSIFIER_ALLOCATION_HEAP 1
uint8_t* tensor_arena = NULL;
#endif

static uint8_t* tensor_boundary;
static uint8_t* current_location;

template <int SZ, class T> struct TfArray {
  int sz; T elem[SZ];
};

enum used_operators_e {
  OP_FULLY_CONNECTED, OP_SOFTMAX,  OP_LAST
};

struct TensorInfo_t { // subset of TfLiteTensor used for initialization from constant memory
  TfLiteAllocationType allocation_type;
  void* data;
  TfLiteIntArray* dims;
  size_t bytes;
};

typedef struct {
  TfLiteTensor tensor;
  int16_t index;
} TfLiteTensorWithIndex;

typedef struct {
  TfLiteEvalTensor tensor;
  int16_t index;
} TfLiteEvalTensorWithIndex;

TfLiteContext ctx{};
static const int MAX_TFL_TENSOR_COUNT = 4;
static TfLiteTensorWithIndex tflTensors[MAX_TFL_TENSOR_COUNT];
static const int MAX_TFL_EVAL_COUNT = 4;
static TfLiteEvalTensorWithIndex tflEvalTensors[MAX_TFL_EVAL_COUNT];
TfLiteRegistration registrations[OP_LAST];

namespace g0 {
const TfArray<2, int> tensor_dimension0 = { 2, { 1,305 } };
const ALIGN(16) float tensor_data1[20] = { 0.0057706614024937153, 0.10675635188817978, -0.053859937936067581, -0.0079765859991312027, 0.074016794562339783, 0.038752786815166473, 0.082186117768287659, 0.038852285593748093, 0.08101605623960495, 8.8492452050559223e-05, 0.045307431370019913, 0.14493925869464874, 0.00089360593119636178, 0.050467882305383682, 0.064465589821338654, 0.082610376179218292, 0.042327586561441422, -0.021120082587003708, -0.027226559817790985, 0.070612400770187378, };
const TfArray<1, int> tensor_dimension1 = { 1, { 20 } };
const ALIGN(16) float tensor_data2[40] = { 0, 0.0078791435807943344, 0.0088890008628368378, 0.0007567030843347311, -0.02594461478292942, 0.014547327533364296, 0.041055623441934586, -0.027208544313907623, 0.010287817567586899, 0.021556084975600243, -0.018323788419365883, -0.014746110886335373, 0.0138029670342803, -0.011993886902928352, -0.0061301984824240208, -0.028788687661290169, -0.026849068701267242, 0.0055016507394611835, -0.025172941386699677, 0, 0.020043902099132538, -0.017905492335557938, -0.0024755846243351698, -0.004240421112626791, -0.0045608486980199814, 0.004637173842638731, 0.025717353448271751, 0, -0.0011612174566835165, 0.024886539205908775, 0.013298220932483673, -0.011274573393166065, 0.020302165299654007, 0.016050685197114944, 0.016759734600782394, 0.01807754673063755, 0, -0.022489588707685471, -0.0004732895758934319, 0, };
const TfArray<1, int> tensor_dimension2 = { 1, { 40 } };
const ALIGN(16) float tensor_data3[4] = { -0.11831580102443695, -0.03116711787879467, 0.064601816236972809, 0.026847902685403824, };
const TfArray<1, int> tensor_dimension3 = { 1, { 4 } };
const ALIGN(16) float tensor_data4[40*305] = { 
  -0.00054557621479034424, -0.0287938192486763, 0.036830604076385498, 0.037238270044326782, 0.043099388480186462, -0.0040753483772277832, -0.11491027474403381, -0.028251193463802338, 0.032321169972419739, -0.062914520502090454, 0.11175006628036499, 0.10807676613330841, -0.11920782178640366, -0.063312605023384094, -0.090004757046699524, 0.03100760281085968, 0.078037574887275696, -0.12231007963418961, -0.08085380494594574, -0.012239314615726471, 0.058113560080528259, -0.097320929169654846, -0.11249686777591705, -0.045819185674190521, -0.084785781800746918, -0.023162700235843658, 0.051306650042533875, -0.10942366719245911, 0.12271691858768463, 0.12792469561100006, 0.049050703644752502, 0.013704061508178711, -0.020166054368019104, 0.0020096302032470703, 0.10946556925773621, 0.030868217349052429, -0.080117791891098022, -0.027545206248760223, 0.089570865035057068, -0.017188489437103271, 0.035906344652175903, -0.022112235426902771, -0.026332654058933258, -0.13145194947719574, -0.098263904452323914, 0.044562682509422302, -0.066157132387161255, -0.014136254787445068, 0.12334637343883514, -0.098203465342521667, -0.0092807114124298096, 0.025591880083084106, -0.034653671085834503, -0.050385028123855591, -0.071841292083263397, 0.1018555760383606, 0.0040407627820968628, -0.065589956939220428, -0.05893368273973465, -0.12939751148223877, 0.059557020664215088, 0.027704551815986633, -0.12978720664978027, 0.080669835209846497, 0.10285259783267975, -0.11256507039070129, 0.11962856352329254, 0.10420912504196167, 0.0052798241376876831, -0.031718775629997253, 0.06279890239238739, -0.08710142970085144, -0.049845613539218903, -0.029734864830970764, -0.077043890953063965, -0.056711480021476746, -0.034171387553215027, 0.039140880107879639, 0.097539201378822327, -0.12879148125648499, 0.045141428709030151, -0.073026522994041443, -0.045632988214492798, -0.094663351774215698, 0.07976822555065155, -0.071698203682899475, -0.034543655812740326, -0.02213723212480545, 0.070763975381851196, -0.085631057620048523, 0.013494908809661865, -0.11594206094741821, 0.0083269625902175903, -0.060601130127906799, 0.07300432026386261, 0.11941780149936676, 0.019756048917770386, 0.066877499222755432, -0.082656323909759521, -0.11683648824691772, -0.042398236691951752, 0.11527392268180847, 0.038241520524024963, 0.086908102035522461, 0.046497926115989685, 0.11977352201938629, -0.02350877970457077, -0.0411195307970047, -0.036812365055084229, -0.034030243754386902, 0.045270085334777832, 0.054790005087852478, 0.1125049889087677, -0.036394312977790833, -0.12614081799983978, -0.031565152108669281, -0.056017592549324036, -0.11459872126579285, 0.10977628827095032, 0.099645078182220459, -0.054506435990333557, 0.060674175620079041, 0.095233991742134094, -0.071291789412498474, -0.05592770129442215, 0.040540158748626709, -0.020986370742321014, -0.12212668359279633, -0.0072777196764945984, -0.063408844172954559, 0.012336596846580505, -0.065504275262355804, -0.011687509715557098, -0.01243872195482254, 0.094821855425834656, 0.068008169531822205, -0.020781777799129486, -0.021972410380840302, -0.11219453066587448, -0.027679145336151123, 0.11437425017356873, 0.017994150519371033, -0.078676402568817139, -0.089567564427852631, -0.047633342444896698, -0.026344001293182373, 0.021353825926780701, 0.10449674725532532, -0.016447879374027252, 0.014005959033966064, 0.0041766166687011719, 0.029364228248596191, 0.06236623227596283, 0.11849595606327057, 0.045287355780601501, -0.042638637125492096, -0.017858706414699554, -0.0023617744445800781, -0.0097174346446990967, -0.0015938431024551392, 0.048405110836029053, -0.00048847496509552002, 0.025245338678359985, -0.023041300475597382, -0.0061580538749694824, -0.050528399646282196, -0.1157703623175621, -0.01300976425409317, -0.020119801163673401, -0.1140412837266922, -0.11212277412414551, 0.043532490730285645, -0.050955630838871002, -0.084208384156227112, 0.029803633689880371, 0.095424801111221313, -0.096836388111114502, 0.036641225218772888, -0.0136600062251091, 0.069987684488296509, -0.026446595788002014, 0.070251196622848511, 0.054751217365264893, -0.086563780903816223, -0.05871918797492981, 0.023769751191139221, 0.064229667186737061, 0.0037416964769363403, -0.12570808827877045, 0.040825203061103821, 0.060712367296218872, -0.054010696709156036, 0.106735959649086, -0.029117763042449951, 0.076852157711982727, 0.057772234082221985, -0.097897633910179138, 0.022455602884292603, -0.028930522501468658, 0.033954694867134094, -0.032303087413311005, 0.031698063015937805, 0.015847727656364441, 0.08174508810043335, 0.00049008429050445557, 0.023775249719619751, 0.022611185908317566, -0.041308276355266571, 0.12833006680011749, 0.12989716231822968, 0.085213258862495422, -0.081633120775222778, 0.10217352211475372, 0.11244386434555054, -0.089074835181236267, 0.11993856728076935, 0.11727406084537506, -0.10704978555440903, 0.11443543434143066, -0.063819095492362976, -0.07152731716632843, -0.020906597375869751, -0.1024426594376564, 0.084305986762046814, -0.087124601006507874, 0.11990152299404144, 0.051213011145591736, 0.10210429131984711, -0.094141170382499695, -0.069933503866195679, -0.099404133856296539, -0.0088066980242729187, 0.093907549977302551, -0.092979550361633301, -0.10960995405912399, 0.063069656491279602, 0.070334106683731079, -0.090069405734539032, -0.075294822454452515, 0.042161419987678528, 0.12322406470775604, -0.096939891576766968, 0.087030157446861267, -0.12290709465742111, -0.041647657752037048, -0.018106557428836823, 0.11233654618263245, -0.0097166523337364197, -0.081223279237747192, -0.079774290323257446, -0.090765871107578278, -0.10533422976732254, 0.10407137870788574, -0.045785732567310333, -0.08108443021774292, 0.12627331912517548, -0.013785712420940399, 0.019956991076469421, 0.012106284499168396, -0.06945684552192688, -0.079880177974700928, -0.091316819190979004, 0.014452219009399414, 0.016440361738204956, 0.026212424039840698, -0.072940081357955933, 0.0055473595857620239, 0.025049388408660889, 0.018081784248352051, -0.037182368338108063, 0.013632401823997498, 0.088305488228797913, 0.057581380009651184, -0.090376466512680054, 0.037005916237831116, 0.068237036466598511, -0.12662456929683685, -0.043975196778774261, -0.064306318759918213, 0.099877834320068359, 0.076062560081481934, 0.049179211258888245, -0.0089296996593475342, -0.1032661497592926, -0.12594486773014069, -0.08352293074131012, 0.011505931615829468, 0.047073811292648315, 0.11914665997028351, 0.072391703724861145, 0.048676773905754089, -0.11361792683601379, -0.06108461320400238, -0.10855317115783691, 0.048084631562232971, -0.051024645566940308, 0.013995841145515442, 0.0027375072240829468, -0.011960931122303009, 0.068305790424346924, 0.044405758380889893, -0.0071979537606239319, -0.12504072487354279, -0.12350773066282272, 0.10631728172302246, 
  -0.12623724341392517, 0.10754058510065079, -0.036755438894033432, 0.042184803634881973, 0.056996062397956848, -0.081668473780155182, 0.019039006903767586, 0.081240497529506683, 0.10274138301610947, 0.13145677745342255, -0.029180491343140602, 0.099482543766498566, 0.058661289513111115, -0.030660709366202354, -0.031380869448184967, -0.027835309505462646, 0.10463455319404602, 0.081188246607780457, -0.11088944971561432, 0.034022197127342224, -0.061583675444126129, 0.11901406198740005, 0.06725214421749115, 0.08867703378200531, 0.010495841503143311, -0.010288087651133537, 0.11322446167469025, 0.091255798935890198, -0.014921856112778187, 0.10830651223659515, 0.084969066083431244, 0.055616140365600586, 0.076117858290672302, 0.205839604139328, 0.071375638246536255, 0.22516545653343201, 0.1852840781211853, 0.12650428712368011, 0.067138656973838806, -0.0088139921426773071, -0.034659560769796371, -0.084166556596755981, 0.041876252740621567, -0.043859798461198807, 0.024882033467292786, 0.023033741861581802, 0.099098414182662964, -0.010338176041841507, -0.078764557838439941, 0.021597787737846375, 0.010603100992739201, -0.018726903945207596, -0.10744619369506836, 0.078136056661605835, -0.023650705814361572, 0.23108653724193573, 0.39722776412963867, 0.23202870786190033, 0.027442244812846184, -0.096648961305618286, 0.302734375, 0.2292063981294632, 0.33034816384315491, -0.010272386483848095, -0.10780048370361328, 0.22472798824310303, 0.35138866305351257, 0.39207437634468079, -0.089588172733783722, -0.019716657698154449, -0.1495262086391449, -0.038783621042966843, -0.020881170406937599, 0.054650343954563141, -0.050496995449066162, -0.085804969072341919, -0.084759652614593506, -0.075369581580162048, 0.054477881640195847, -0.089974008500576019, -0.25606206059455872, -0.10823534429073334, -0.28653311729431152, -0.27767512202262878, -0.1139635294675827, -0.21259991824626923, -0.1318717747926712, -0.20781852304935455, -0.11753104627132416, -0.07065245509147644, -0.13104479014873505, 0.014666575938463211, -0.05973612517118454, -0.040670230984687805, 0.079990267753601074, 0.071407124400138855, 0.063645161688327789, -0.04946652427315712, -0.10566079616546631, -0.11255472153425217, 0.062045939266681671, -0.13961818814277649, -0.10559540987014771, 0.039638351649045944, 0.062437132000923157, -0.10004593431949615, -0.027973761782050133, -0.12521423399448395, 0.012795675545930862, -0.0090572908520698547, -0.13492146134376526, 0.025556210428476334, 0.016343172639608383, -0.060088563710451126, -0.056549146771430969, 0.10235614329576492, 0.075605474412441254, -0.10815984755754471, -0.019070547074079514, -0.016590498387813568, -0.073738023638725281, 0.072956852614879608, 0.032999854534864426, 0.039286568760871887, 0.038869559764862061, 0.098034486174583435, 0.05686163529753685, 0.17843069136142731, 0.0015781286638230085, -0.10194063186645508, -0.083483748137950897, 0.1594846248626709, 0.12442959100008011, -0.079606600105762482, 0.11336126923561096, -0.04127785935997963, 0.11029478162527084, 0.15888389945030212, 0.11749086529016495, 0.041837409138679504, -0.052982941269874573, 0.054164782166481018, 0.072333939373493195, 0.086987830698490143, 0.12458975613117218, 0.057250045239925385, -0.0019912798888981342, 0.0014555572997778654, 0.0011835887562483549, 0.067958518862724304, 0.090704292058944702, -0.067847602069377899, -0.0058845048770308495, -0.095756746828556061, -0.11922357231378555, 0.0034209068398922682, 0.085917003452777863, 0.093965187668800354, 0.072374261915683746, 0.021096855401992798, -0.025788789615035057, 0.043525006622076035, 0.11123333871364594, 0.036491036415100098, 0.085960820317268372, -0.05257926881313324, -0.0080726994201540947, 0.088562890887260437, -0.040208615362644196, 0.096313193440437317, 0.17122367024421692, 0.050903398543596268, 0.094792023301124573, 0.088930495083332062, -0.098904341459274292, 0.19392295181751251, 0.16283057630062103, 0.16643618047237396, 0.025464855134487152, -0.10202936083078384, -0.049615364521741867, 0.18599100410938263, 0.010322801768779755, 0.10492682456970215, -0.12175054848194122, -0.08980146050453186, 0.052015133202075958, -0.041592881083488464, -0.14604082703590393, 0.080938607454299927, -0.12578287720680237, -0.076564304530620575, 0.056345228105783463, -0.028311420232057571, -0.082719840109348297, -0.080888271331787109, -0.065171197056770325, 0.069749653339385986, 0.1114799976348877, -0.041923999786376953, 0.043097302317619324, -0.070025034248828888, 0.017298618331551552, 0.008776836097240448, -0.051679894328117371, 0.12940777838230133, -0.088590390980243683, -0.11859407275915146, -0.0019566977862268686, -0.10238534212112427, -0.01998116634786129, 0.12150596082210541, 0.016856769099831581, -0.044191472232341766, -0.00089083611965179443, 0.16883742809295654, 0.010310220532119274, 0.19661910831928253, 0.12085378915071487, 0.083820611238479614, 0.15852586925029755, 0.067183315753936768, 0.14712676405906677, 0.15937796235084534, 0.010360226035118103, 0.11320815980434418, 0.14844021201133728, 0.15250636637210846, 0.052564077079296112, 0.083016559481620789, -0.020963460206985474, -0.042838037014007568, -0.057672955095767975, -0.1050906777381897, 0.049605712294578552, -0.14705353975296021, -0.067918367683887482, -0.10118385404348373, 0.04885835200548172, 0.0042669475078582764, 0.03882472962141037, 0.014959638006985188, 0.040571622550487518, -0.10485057532787323, 0.016947805881500244, 0.0079232398420572281, 0.10913523286581039, -0.031735587865114212, 0.052129104733467102, -0.10490643233060837, -0.02996368519961834, 0.05932224914431572, 0.06922873854637146, 0.1655152440071106, -0.082791939377784729, -0.028075935319066048, -0.049038451164960861, 0.19126531481742859, 0.061119586229324341, -0.083221271634101868, 0.11071498692035675, 0.074275389313697815, 0.020361023023724556, 0.11601521819829941, -0.10416610538959503, 0.00099311105441302061, 0.046759750694036484, -0.099538125097751617, -0.10035645216703415, -0.06572280079126358, 0.064441807568073273, -0.053626116365194321, -0.10656706988811493, -0.014253724366426468, 0.05212073028087616, 0.085712775588035583, -0.10209484398365021, 0.061889048665761948, -0.0072359023615717888, -0.029427304863929749, -0.033084321767091751, -0.06118769571185112, -0.0059878365136682987, 0.06014692410826683, -0.096725672483444214, 0.11234678328037262, 0.13048134744167328, 0.12129858136177063, -0.039046872407197952, 0.088082194328308105, 0.12562304735183716, -0.025882137939333916, 0.13154225051403046, -0.061377920210361481, -0.041446089744567871, -0.018284084275364876, -0.085823103785514832, 0.10325203835964203, 0.065823577344417572, -0.12010931968688965, 0.05960652232170105, -0.063806295394897461, -0.09185471385717392, 0.13515441119670868, -0.085826531052589417, 
  0.085135012865066528, -0.11058500409126282, 0.057184271514415741, 0.080741792917251587, 0.12440694868564606, -0.097102344036102295, -0.093591585755348206, -0.074756309390068054, 0.043438076972961426, 0.0017032027244567871, 0.11865799129009247, 0.061171621084213257, 0.0050766994245350361, 0.11360393464565277, -0.067052125930786133, -0.076640687882900238, 0.055727120488882065, -0.035582568496465683, -0.12249256670475006, 0.075032442808151245, 0.055246908217668533, -0.13201889395713806, 0.035682961344718933, -0.078422002494335175, 0.046132475137710571, 0.16803771257400513, 0.077925145626068115, 0.16952487826347351, 0.11522228270769119, 0.014953583478927612, 0.22048337757587433, 0.080453634262084961, 0.065221890807151794, 0.12799806892871857, -0.039444096386432648, 0.094004698097705841, 0.11004873365163803, 0.078542917966842651, -0.0095079783350229263, -0.064065694808959961, 0.037007369101047516, 0.029952079057693481, -0.0056697968393564224, -0.049683503806591034, -0.10280254483222961, -0.10847334563732147, 0.012553747743368149, 0.1123523935675621, 0.024163562804460526, 0.045260503888130188, -0.14205828309059143, -0.083320885896682739, 0.042567022144794464, 0.098074838519096375, 0.011593908071517944, 0.11202733218669891, 0.18338343501091003, 0.092923596501350403, 0.033355712890625, -0.029219001531600952, 0.10904853790998459, 0.30556130409240723, 0.28951582312583923, 0.0047211428172886372, -0.10889305174350739, 0.24788431823253632, 0.19953759014606476, 0.23993654549121857, -0.093579329550266266, 0.076983556151390076, -0.041027717292308807, 0.096782781183719635, -0.12781630456447601, -0.13088329136371613, -0.04637608677148819, 0.033987894654273987, -0.065642893314361572, 0.030176484957337379, 0.051720418035984039, 0.10203690826892853, -0.13601201772689819, -0.11888683587312698, -0.15322892367839813, -0.20294962823390961, -0.046761780977249146, -0.25549674034118652, -0.14697167277336121, -0.19399788975715637, -0.07477220892906189, -0.065661735832691193, 0.052406400442123413, -0.028518389910459518, -0.099136874079704285, 0.040972910821437836, 0.058663100004196167, -0.01460990309715271, -0.071018785238265991, -0.024958409368991852, 0.0020714374259114265, -0.092509031295776367, 0.093020595610141754, -0.0035394781734794378, -0.13603499531745911, 0.0097125153988599777, -0.12403223663568497, 0.073316954076290131, -0.069158636033535004, 0.05865907296538353, -0.13731376826763153, 0.11214736104011536, -0.033571798354387283, 0.04415009543299675, -0.10241544991731644, -0.010250328108668327, -0.091473966836929321, -0.018418669700622559, -0.0729665607213974, 0.10641643404960632, 0.059587184339761734, 0.090009972453117371, -0.04441789910197258, -0.073489420115947723, 0.075798921287059784, 0.057715285569429398, 0.1122107207775116, 0.075343415141105652, 0.15490575134754181, 0.12209358811378479, -0.062516488134860992, -0.13098990917205811, 0.096174858510494232, 0.057539690285921097, -0.015264327637851238, 0.13046793639659882, 0.049157172441482544, 0.078724011778831482, 0.11704541742801666, 0.036634631454944611, -0.0069933878257870674, -0.089048899710178375, 0.10983587801456451, -0.027753526344895363, -0.048224445432424545, 0.056312013417482376, 0.075913116335868835, -0.017864305526018143, 0.15495128929615021, 0.14084714651107788, 0.13194583356380463, 0.077850878238677979, 0.062488321214914322, 0.0025526296813040972, -0.045163977891206741, -0.029786087572574615, 0.11899526417255402, -0.10627662390470505, -0.11633876711130142, 0.071995995938777924, 0.085386782884597778, -0.019956745207309723, 0.015072816051542759, 0.015161209739744663, 0.10141143947839737, -0.12075551599264145, -0.077633887529373169, 0.05405440554022789, 0.039492841809988022, -0.04749118909239769, -0.073246777057647705, -0.015090636909008026, 0.17309917509555817, 0.036899063736200333, 0.1661909818649292, 0.11241073161363602, 0.071409150958061218, 0.11068619787693024, 0.1607930064201355, -0.017417434602975845, -0.007848791778087616, 0.10894477367401123, -0.032706655561923981, 0.071167558431625366, -0.0041115214116871357, 0.028568137437105179, -0.043747119605541229, 0.00059285096358507872, -0.12892800569534302, -0.040870741009712219, -0.12552255392074585, -0.11813613027334213, 0.011303957551717758, -0.078150480985641479, -0.074396386742591858, -0.085138648748397827, -0.042621821165084839, -0.11978023499250412, -0.09653385728597641, -0.059856366366147995, 0.10004978626966476, -0.021381273865699768, 0.087838992476463318, 0.10025079548358917, 0.13396072387695312, 0.12361881136894226, -0.03074219822883606, -0.022165603935718536, -0.1204187348484993, 0.081364899873733521, -0.056370101869106293, -0.02304404228925705, 0.12172754853963852, -0.04744797945022583, 0.023639634251594543, 0.032318860292434692, 0.050800815224647522, 0.052065439522266388, 0.075848303735256195, 0.20578564703464508, 0.069646485149860382, -0.023888282477855682, -0.022413866594433784, 0.20754754543304443, 0.039157412946224213, 0.055726867169141769, -0.043683826923370361, 0.075868502259254456, 0.052063159644603729, 0.075785800814628601, 0.080323666334152222, 0.0075528323650360107, 0.029284065589308739, -0.019472664222121239, -0.083708494901657104, 0.034130819141864777, 0.10659520328044891, -0.070706821978092194, -0.14558112621307373, -0.092654287815093994, -0.068666353821754456, -0.007041148841381073, -0.052749652415513992, 0.068075031042098999, 0.0021191833075135946, -0.055307555943727493, 0.043696999549865723, 0.055550668388605118, 0.055291745811700821, 0.051442086696624756, 0.098117649555206299, 0.12722407281398773, 0.088440127670764923, 0.019711099565029144, 0.12132681161165237, 0.12857897579669952, 0.069637924432754517, 0.11083046346902847, 0.14106281101703644, 0.18824569880962372, 0.038494851440191269, 0.067283004522323608, 0.064864501357078552, -0.040382422506809235, 0.18412362039089203, 0.084135182201862335, 0.083359017968177795, -0.083446130156517029, 0.060720421373844147, 0.11854164302349091, 0.016547191888093948, -0.062922753393650055, -0.030439892783761024, 0.088135816156864166, 0.0053936392068862915, -0.081080734729766846, -0.0080430135130882263, -0.11362699419260025, -0.080339305102825165, 0.047469321638345718, 0.13755691051483154, -0.0072302743792533875, -0.035242777317762375, -0.086274892091751099, -0.016656583175063133, -0.062006939202547073, 0.050256058573722839, 0.038596611469984055, 0.016410870477557182, -0.055420082062482834, -0.096158377826213837, -0.10358349233865738, 0.053098130971193314, 0.025680338963866234, 0.003636425593867898, 0.035947114229202271, -0.10410661995410919, -0.043900188058614731, 0.041035283356904984, -0.076582238078117371, -0.07530464231967926, 0.020258709788322449, -0.067380830645561218, -0.069753646850585938, 0.11441004276275635, 0.13110971450805664, 0.11796043813228607, 
  -0.10013149678707123, -0.061211787164211273, -0.0029763099737465382, -0.0049398802220821381, 0.064508169889450073, 0.11389502882957458, 0.07116343080997467, 0.063902534544467926, -0.091274559497833252, 0.04320700466632843, -0.092589452862739563, -0.091412872076034546, 0.071261987090110779, -0.10057561099529266, 0.10859835147857666, -0.065304100513458252, 0.10138854384422302, 0.071204528212547302, 0.11979207396507263, 0.02451227605342865, -0.11485295742750168, -0.0057912576012313366, 0.11697825789451599, -0.0129108726978302, 0.077316299080848694, -0.11630866676568985, -0.056868784129619598, -0.00032491446472704411, -0.14266718924045563, -0.052909702062606812, 0.086055494844913483, 0.091756515204906464, -0.11757083982229233, 0.042577385902404785, -0.082388132810592651, 0.043529342859983444, -0.10156809538602829, -0.0029537412337958813, -0.063326641917228699, 0.046555235981941223, 0.04041362926363945, 0.10464322566986084, -0.0099479388445615768, 0.0031625546980649233, 0.079180315136909485, 0.066684745252132416, -0.092753268778324127, 0.12165776640176773, -0.063185259699821472, 0.10172462463378906, -0.028130644932389259, 0.11864477396011353, -0.048029735684394836, 0.0297571811825037, 0.023235306143760681, -0.24017469584941864, -0.13550308346748352, -0.12328795343637466, -0.048717889934778214, 0.090486198663711548, -0.25300458073616028, -0.12705060839653015, -0.24116651713848114, 0.068214096128940582, 0.031935468316078186, -0.18132252991199493, -0.16575877368450165, -0.15732266008853912, -0.01631963811814785, 0.010722562670707703, 0.1228741779923439, 0.076328866183757782, 0.067241549491882324, -0.010129873640835285, -0.043926872313022614, 0.009944734163582325, 0.14814460277557373, -0.03962484747171402, 0.090709134936332703, -0.071849092841148376, 0.22682088613510132, 0.37868458032608032, 0.2024293839931488, 0.22731605172157288, 0.047793537378311157, 0.15338875353336334, 0.27673676609992981, 0.35321727395057678, 0.32136934995651245, 0.09291723370552063, 0.0080519653856754303, 0.15083342790603638, 0.037906993180513382, 0.021376248449087143, 0.008324354887008667, 0.020886741578578949, 0.045004166662693024, 0.04433160275220871, -0.014367668889462948, -0.079070121049880981, -0.021941488608717918, -0.040724840015172958, 0.04744262620806694, 0.048252005130052567, 0.12083028256893158, 0.023275449872016907, 0.023173138499259949, -0.0029898460488766432, -0.085321851074695587, -0.10492222011089325, 0.15570612251758575, 0.126880943775177, 0.15985764563083649, 0.12724660336971283, -0.067955978214740753, 0.031848173588514328, -0.09245697408914566, -0.054677590727806091, -0.019482219591736794, 0.10863523185253143, -0.014606419019401073, 0.089488744735717773, -0.12209856510162354, 0.003449243726208806, -0.12925361096858978, -0.13064371049404144, -0.04190320149064064, -0.0069667845964431763, -0.098336108028888702, 0.11405932903289795, -0.035985782742500305, 0.053477801382541656, -0.10476598888635635, 0.056688174605369568, -0.014608412981033325, 0.021192649379372597, 0.0035415126476436853, -0.12351305782794952, 0.061534389853477478, -0.050473697483539581, 0.097101472318172455, 0.039014410227537155, 0.097165875136852264, 0.074608407914638519, -0.080634191632270813, -0.08901512622833252, -0.14754340052604675, -0.055027049034833908, 0.013873016461730003, -0.049406751990318298, 0.093996591866016388, 0.13225863873958588, 0.14721293747425079, 0.17148210108280182, 0.11083225905895233, 0.18973408639431, 0.17884849011898041, 0.25395447015762329, 0.22597090899944305, -0.095967873930931091, -0.058720462024211884, -0.081418447196483612, -0.0061583444476127625, 0.042834840714931488, -0.072247549891471863, 0.12610453367233276, 0.035111762583255768, 0.017846435308456421, 0.063724182546138763, 0.031499341130256653, 0.0068207997828722, -0.1088142991065979, -0.0011443423572927713, -0.052964888513088226, -0.097583375871181488, 0.020151585340499878, -0.061829268932342529, -0.020885543897747993, -0.025902409106492996, 0.057200014591217041, 0.014835755340754986, -0.12538920342922211, 0.0090799704194068909, 0.051859583705663681, -0.083153076469898224, 0.058646805584430695, 0.022794362157583237, 0.1552397608757019, 0.1518363356590271, 0.045207738876342773, -0.08076312392950058, -0.082487814128398895, 0.055372200906276703, -0.041539445519447327, -0.011956274509429932, 0.080772005021572113, 0.00097152375383302569, -0.01216823048889637, 0.10181967169046402, 0.12469305098056793, -0.012944873422384262, 0.082047112286090851, -0.054920949041843414, -0.065491698682308197, 0.12305609881877899, 0.021041804924607277, 0.07455030083656311, 0.011271524243056774, 0.022204762324690819, 0.13058049976825714, -0.014291106723248959, -0.018495744094252586, 0.10965564101934433, -0.032783977687358856, -0.055725745856761932, -0.0071633728221058846, 0.00078724784543737769, 0.058837376534938812, -0.079541385173797607, -0.081931978464126587, 0.032674774527549744, 0.076201021671295166, 0.1112840324640274, 0.082272008061408997, -0.0073734298348426819, 0.08921920508146286, 0.11781147867441177, 0.085210390388965607, -0.13470008969306946, -0.052794843912124634, 0.11280547082424164, 0.01718316413462162, 0.13634029030799866, 0.074182912707328796, 0.035835966467857361, 0.16100238263607025, 0.023063451051712036, 0.23371404409408569, 0.20920568704605103, 0.047029256820678711, -0.031385116279125214, -0.081580318510532379, 0.077612690627574921, -0.078589163720607758, -0.0071948692202568054, -0.11409339308738708, 0.09381866455078125, 0.10132403671741486, -0.13734979927539825, 0.12228171527385712, 0.042178776115179062, 0.078522361814975739, -0.13687542080879211, -0.10396479815244675, -0.083303965628147125, 0.084476187825202942, -0.15321458876132965, 0.0568503737449646, -0.087850093841552734, 0.1145414263010025, -0.099864207208156586, 0.015900345519185066, -0.014920773915946484, -0.071277432143688202, -0.096340484917163849, -0.0072730197571218014, 0.039296790957450867, -0.020115982741117477, 0.1204182505607605, 0.049614548683166504, -0.12263359874486923, -0.096420779824256897, 0.10525062680244446, 0.0037523682694882154, 0.10574184358119965, -0.028181051835417747, -0.05704103410243988, -0.096826635301113129, 0.057517599314451218, -0.069167077541351318, -0.12635840475559235, 0.029944615438580513, -0.07746240496635437, 0.015934664756059647, 0.10543876886367798, -0.12449890375137329, -0.12741288542747498, 0.0044481637887656689, -0.0099615501239895821, 0.10067768394947052, -0.061883974820375443, 0.049650363624095917, 0.11326849460601807, 0.064857050776481628, 0.062835574150085449, -0.088107883930206299, 0.0049678925424814224, -0.035753853619098663, 0.089067801833152771, -0.088716939091682434, 0.040211278945207596, -0.04758458212018013, -0.14114245772361755, -0.059039462357759476, 0.0012279003858566284, 
  0.083638459444046021, -0.0014964346773922443, -0.12609975039958954, 0.08651559054851532, -0.06159701943397522, -0.060228936374187469, -0.10387452691793442, -0.11218277364969254, 0.053331747651100159, -0.011338509619235992, -0.050687409937381744, -0.062441565096378326, -0.077838040888309479, 0.058000456541776657, -0.11989318579435349, 0.022861354053020477, 0.07935892790555954, -0.078151978552341461, -0.07684633880853653, 0.027572467923164368, -0.023410124704241753, -0.15044733881950378, 0.03637932613492012, 0.05920632928609848, -0.025783836841583252, 0.089560635387897491, -0.094303980469703674, -0.028923748061060905, 0.090045906603336334, 0.11347480118274689, -0.10493626445531845, 0.12518127262592316, 0.013664313592016697, -0.049376219511032104, -0.12839116156101227, -0.10619635134935379, 0.096507258713245392, 0.060275912284851074, -0.036222916096448898, -0.063481852412223816, 0.066797636449337006, 0.035312507301568985, 0.013492701575160027, -0.0020455415360629559, 0.086490273475646973, -0.078329481184482574, 0.0026986987795680761, 0.0076730647124350071, -0.0053916242904961109, -0.096837952733039856, -0.058087803423404694, 0.00040178489871323109, 0.087858185172080994, -0.15320989489555359, -0.08811737596988678, -0.06232726201415062, -0.055478304624557495, 0.070016957819461823, -0.07201579213142395, -0.070465341210365295, 0.13880077004432678, -0.054189916700124741, -0.089539788663387299, 0.10005743056535721, -0.059869952499866486, -0.019312065094709396, 0.073396041989326477, -0.0080089028924703598, 0.04457632452249527, -0.12034239619970322, 0.026357274502515793, 0.069132700562477112, 0.073848769068717957, 0.086435198783874512, -0.11154525727033615, -0.029870890080928802, -0.058462921530008316, 0.046292152255773544, 0.088662095367908478, 0.11505547165870667, -0.00453588692471385, -0.073580168187618256, -0.081382542848587036, 0.068962626159191132, 0.11752068996429443, 0.010485111735761166, -0.056658197194337845, 0.11457625776529312, -0.0060256593860685825, -0.04317629337310791, -0.076025716960430145, 0.022240558639168739, 0.010591967962682247, -0.086272217333316803, 0.10074329376220703, 0.086567573249340057, 0.03052966296672821, -0.075013302266597748, -0.02983451634645462, 0.0029960870742797852, -0.10954659432172775, -0.0047273384407162666, -0.11385897547006607, -0.045388016849756241, -0.07069823145866394, 0.079708568751811981, 0.014230095781385899, 0.076194517314434052, -0.046147376298904419, 0.062408462166786194, -0.0028458808083087206, 0.0049794209189713001, -0.095073595643043518, -0.021051483228802681, -0.052147775888442993, -0.09461434930562973, 0.030795551836490631, 0.095931045711040497, -0.079386316239833832, -0.045487135648727417, 0.11549942940473557, -0.12776696681976318, 0.071370735764503479, 0.056890815496444702, 0.12511228024959564, 0.10438776761293411, 0.04125097393989563, -0.0046505383215844631, 0.071083866059780121, 0.065818250179290771, -0.015715301036834717, -0.12139219045639038, 0.069171369075775146, -0.12431906163692474, -0.052927024662494659, 0.00466878991574049, -0.093922853469848633, -0.115240678191185, -0.00090844905935227871, 0.060303479433059692, 0.08722706139087677, -0.002362443832680583, 0.025799334049224854, -0.057354770600795746, 0.076668545603752136, 0.025836559012532234, -0.12320037186145782, 0.062529727816581726, -0.13347776234149933, -0.077496148645877838, 0.13215826451778412, 0.078873202204704285, 0.10161958634853363, -0.009596911258995533, -0.076445899903774261, 0.028752032667398453, 0.067972667515277863, 0.10212283581495285, 0.15564544498920441, 0.10426691174507141, -0.12474029511213303, 0.06089327484369278, -0.071930944919586182, -0.12124217301607132, 0.13049434125423431, -0.060068029910326004, -0.13800938427448273, -0.062714032828807831, -0.098114363849163055, -0.014842845499515533, 0.014200943522155285, -0.046230893582105637, 0.11111796647310257, -0.04555690661072731, 0.096760928630828857, -0.080073639750480652, -0.14609840512275696, 0.11434097588062286, 0.083658292889595032, -0.069797426462173462, -0.13744276762008667, -0.10523218661546707, -0.025042826309800148, -0.14622241258621216, 0.0069340318441390991, -0.085284948348999023, -0.11199484020471573, -0.0355081707239151, -0.0469086654484272, 0.036873117089271545, 0.0056314673274755478, -0.046444524079561234, -0.12963473796844482, -0.015724238008260727, -0.016249515116214752, 0.017182670533657074, 0.10941976308822632, -0.12186688184738159, -0.054742615669965744, 0.066031813621520996, 0.095112830400466919, -0.026303030550479889, -0.078733727335929871, 0.0056925369426608086, -0.10931991040706635, 0.031883001327514648, 0.016696790233254433, -0.13665550947189331, 0.053166836500167847, -0.037163786590099335, -0.018804438412189484, 0.0016293282387778163, 0.098776213824748993, 0.090540610253810883, 0.025372803211212158, -0.063447743654251099, -0.043751697987318039, 0.00041097565554082394, 0.060778576880693436, 0.010458052158355713, 0.0051214871928095818, 0.0038929053116589785, -0.10645855963230133, -0.069307707250118256, -0.010045252740383148, -0.070296719670295715, -0.099193140864372253, 0.11529281735420227, 0.035033669322729111, 0.036494389176368713, 0.11655188351869583, 0.084827646613121033, -0.066878050565719604, 0.042258411645889282, 0.073834910988807678, 0.0016536228358745575, 0.055904552340507507, 0.1091928705573082, -0.10985229164361954, -0.061423897743225098, 0.012810776941478252, 0.029504401609301567, -0.020238064229488373, -0.042928952723741531, 0.0022498071193695068, 0.11847091466188431, 0.17363171279430389, 0.15932579338550568, -0.062252350151538849, -0.055635161697864532, 0.065222203731536865, -0.053656827658414841, -0.042605701833963394, 0.091407492756843567, -0.10784830898046494, -0.11758416146039963, 0.049580737948417664, -0.13079854846000671, -0.024538351222872734, -0.012995868921279907, 0.017621994018554688, 0.090530157089233398, 0.10771378874778748, -0.13352474570274353, 0.11267398297786713, -0.080018892884254456, -0.06000160425901413, 0.0070702414959669113, -0.069824099540710449, 0.12309350073337555, -0.094261758029460907, -0.098875485360622406, -0.071790114045143127, -0.075891256332397461, -0.12320214509963989, -0.012039017863571644, -0.0895228311419487, 0.06612125039100647, -0.073371909558773041, 0.080086186528205872, -0.11696723848581314, 0.076509304344654083, -0.087758801877498627, 0.053910385817289352, -0.12388993054628372, -0.091440752148628235, -0.05176563560962677, 0.070979177951812744, 0.081167936325073242, 0.019525423645973206, -0.11644722521305084, -0.14162364602088928, -0.093919321894645691, 0.032861337065696716, 0.046045467257499695, -0.091918803751468658, 0.10318399220705032, -0.1522180438041687, -0.10918476432561874, 0.012054219841957092, -0.14532259106636047, -0.1543252170085907, 0.01295427605509758, -0.15569919347763062, 0.0015364289283752441, 
  -0.029974982142448425, 0.032062221318483353, -0.035096410661935806, 0.021607942879199982, -0.050635084509849548, -0.11271465569734573, -0.11978015303611755, 0.031707681715488434, -0.10889265686273575, -0.040187224745750427, -0.077683791518211365, 0.011350275948643684, 0.11924487352371216, 0.059405304491519928, -0.06193985790014267, -0.001444671768695116, 0.12473892420530319, 0.053876753896474838, 0.11267715692520142, 0.05323009192943573, 0.11329995095729828, -0.06606331467628479, 0.046162575483322144, -0.073297426104545593, -0.0039875060319900513, 0.070689238607883453, -0.00079396780347451568, 0.013807477429509163, 3.8926787965465337e-05, 0.07348044216632843, -0.010245372541248798, 0.041731551289558411, -0.079861775040626526, -0.091442033648490906, 0.11278617382049561, 0.077758766710758209, 0.045228302478790283, -0.17354023456573486, -0.059231936931610107, 0.083000838756561279, -0.07989165186882019, -0.043136090040206909, 0.010523797012865543, 0.059499211609363556, 0.12873910367488861, 0.037186302244663239, -0.058581389486789703, 0.026759766042232513, 0.0055871238000690937, -0.0022341907024383545, 0.0035362637136131525, 0.12660133838653564, 0.049747847020626068, 0.14838899672031403, 0.044678822159767151, -0.095997244119644165, -0.043607849627733231, 0.0090576577931642532, -0.0073247808031737804, 0.035130515694618225, -0.21192160248756409, -0.18363714218139648, -0.077744908630847931, -0.092145569622516632, -0.063233055174350739, -0.072910815477371216, -0.16556878387928009, -0.057099837809801102, -0.013238119892776012, 0.10041794180870056, 0.084259577095508575, 0.013151008635759354, 0.032405994832515717, 0.1276671439409256, 0.11316268146038055, 0.11177974939346313, 0.057717133313417435, 0.10418274998664856, -0.028011560440063477, -0.051554411649703979, 0.073648117482662201, 0.065087296068668365, 0.085022233426570892, 0.12461598962545395, 0.072109520435333252, -0.0089619047939777374, -0.1119823083281517, -0.11016906052827835, -0.1031876727938652, 0.12708459794521332, 0.1306663304567337, -0.10470683127641678, 0.0030410196632146835, 0.026918873190879822, 0.12934832274913788, -0.046014744788408279, 0.087101869285106659, 0.054085467010736465, 0.14007078111171722, 0.09279593825340271, 0.0077378284186124802, 0.11120504885911942, -0.095378540456295013, -0.077723987400531769, 0.02262645959854126, 0.074714250862598419, -0.029419716447591782, 0.10318099707365036, -0.0617336705327034, 0.02820897102355957, -0.059749078005552292, -0.021835688501596451, 0.12091207504272461, -0.099326476454734802, -0.093229740858078003, 0.0046691866591572762, 0.080566816031932831, -0.094659753143787384, 0.054275006055831909, -0.067901208996772766, 0.085336662828922272, 0.023240987211465836, 0.038925100117921829, 0.10891386121511459, -0.058012060821056366, 0.044884875416755676, 0.044665910303592682, 0.0043896050192415714, 0.0077436431311070919, 0.073415353894233704, -0.11075425893068314, -0.054578382521867752, -0.023318126797676086, -0.13116791844367981, 0.057574674487113953, 0.019973991438746452, 0.11180037260055542, 0.017025168985128403, -0.024478914216160774, 0.12390135228633881, -0.082828216254711151, -0.11507892608642578, 0.048031754791736603, -0.061001129448413849, -0.008374437689781189, 0.044400632381439209, -0.094007126986980438, -0.0088856155052781105, -0.1000092551112175, -0.11823017150163651, -0.14807754755020142, 0.088711395859718323, -0.087532743811607361, -0.17258930206298828, -0.090313270688056946, 0.090129688382148743, -0.040443658828735352, -0.12743121385574341, -0.075921788811683655, -0.0065703392028808594, 0.071873858571052551, 0.097894445061683655, 0.10812853276729584, -0.0035831541754305363, -0.0052442550659179688, 0.051266036927700043, 0.090356700122356415, 0.11903933435678482, 0.0052207205444574356, 0.071161776781082153, -0.024680687114596367, 0.0043079699389636517, -0.10775912553071976, 0.11587967723608017, 0.11893297731876373, -0.026795148849487305, 0.045343395322561264, -0.0081694973632693291, -0.040275927633047104, -0.1314140260219574, -0.029816091060638428, -0.027719197794795036, 0.062387257814407349, 0.012403060682117939, -0.038654878735542297, 0.062982849776744843, -0.060926992446184158, 0.12403947860002518, 0.13419590890407562, -0.042606666684150696, -0.067042618989944458, -0.095620721578598022, -0.10064004361629486, 0.083070948719978333, 0.049918711185455322, 0.13112205266952515, 0.08077181875705719, -0.022169420495629311, 0.088573992252349854, -0.083508305251598358, 0.12794211506843567, 0.058239873498678207, -0.064448140561580658, -0.037624392658472061, 0.033933877944946289, 0.14031223952770233, 0.042604960501194, 0.017652014270424843, -0.031980268657207489, -0.0041650831699371338, 0.12427946925163269, 0.070142149925231934, -0.09439559280872345, 0.13744783401489258, 0.016999408602714539, -0.064956314861774445, 0.051010273396968842, -0.095602460205554962, -0.13600796461105347, 0.1100812703371048, -0.051135491579771042, -0.090500809252262115, -0.10414814203977585, -0.04264305904507637, -0.058304443955421448, -0.049794245511293411, -0.11804201453924179, 0.038813136518001556, -0.091894075274467468, -0.12584295868873596, -0.006490461528301239, -0.13341827690601349, -0.083094105124473572, 0.10431601107120514, -0.1075751781463623, 0.056470673531293869, -0.056861907243728638, -0.041185185313224792, -0.13188876211643219, 0.065743833780288696, -0.13719621300697327, -0.0045516933314502239, 0.050039000809192657, 0.04119468480348587, 0.019129142165184021, -0.1677490621805191, 0.079237625002861023, -0.055441673845052719, -0.095780722796916962, -0.12926851212978363, -0.13352178037166595, -0.12053026258945465, 0.09147372841835022, -0.02862398698925972, -0.072014719247817993, -0.12645247578620911, 0.11333004385232925, -0.099384970963001251, -0.070669896900653839, 0.029562100768089294, 0.035510066896677017, 0.069955140352249146, -0.12892769277095795, -0.12928412854671478, 0.075253695249557495, 0.076055698096752167, 0.11117983609437943, 0.049697089940309525, -0.12136617302894592, 0.030371189117431641, -0.11946890503168106, -0.028875464573502541, -0.062563925981521606, -0.10951438546180725, -0.072492793202400208, 0.10194288939237595, -0.095139659941196442, -0.097031570971012115, -0.02736520953476429, -0.03798077255487442, 0.063421763479709625, 0.0016008673701435328, -0.052017923444509506, 0.11398784816265106, 0.08768819272518158, 0.013821298256516457, -0.09220045804977417, 0.12211452424526215, 0.089965403079986572, 0.1080147922039032, 0.1130034327507019, -0.023996897041797638, -0.10213707387447357, -0.059793107211589813, 0.062606737017631531, -0.037506803870201111, -0.023005042225122452, 0.087959393858909607, 0.046598955988883972, 0.0035276412963867188, 0.033503677695989609, -0.00927750114351511, -0.051435954868793488, 0.0037314514629542828, -0.070696562528610229, 
  0.077533580362796783, -0.032497692853212357, -0.066606365144252777, -0.028751775622367859, -0.045899838209152222, 0.0079321404919028282, 0.014316792599856853, 0.064442098140716553, -0.039605382829904556, 0.12798480689525604, 0.025904471054673195, 0.029197016730904579, 0.035774242132902145, 0.21838465332984924, 0.1055116206407547, 0.17517656087875366, 0.089407019317150116, -0.013852359727025032, -0.030586158856749535, -0.1051441952586174, 0.073981687426567078, 0.077824488282203674, 0.023261090740561485, 0.21409249305725098, -0.012761376798152924, -0.17649497091770172, -0.20295332372188568, -0.048116974532604218, -0.079129904508590698, 0.071135044097900391, -0.17134463787078857, 0.0027587111108005047, -0.027871519327163696, -0.20738589763641357, -0.096739798784255981, -0.068435370922088623, -0.12863568961620331, -0.052015643566846848, -0.029109064489603043, 0.057165741920471191, 0.14276491105556488, 0.051563773304224014, -0.029231229797005653, 0.1260637640953064, -0.060574032366275787, -0.048017039895057678, -0.0066010560840368271, 0.0040078694000840187, -0.015694918110966682, -0.11623542010784149, -0.032240886241197586, 0.051713839173316956, 0.17080116271972656, 0.027603833004832268, -0.070102065801620483, -0.016916155815124512, 0.075377918779850006, 0.02137710340321064, -0.041512556374073029, -0.11009764671325684, -0.079598352313041687, -0.11837314069271088, -0.0590786412358284, -0.12607666850090027, -0.036288328468799591, 0.044851146638393402, -0.022352714091539383, 0.076790094375610352, -0.21989478170871735, 0.091101229190826416, 0.0114803621545434, -0.090107008814811707, -0.13427464663982391, 0.052409060299396515, 0.10094122588634491, -0.12714648246765137, -0.046783532947301865, -0.089748471975326538, -0.013787331059575081, 0.085522055625915527, -0.22780254483222961, -0.37859141826629639, -0.270885169506073, -0.40329790115356445, 0.092502608895301819, -0.47806239128112793, -0.26559150218963623, -0.28994539380073547, -0.47464317083358765, 0.04789695143699646, 0.090282559394836426, 0.11207520961761475, -0.057536277920007706, 0.069079086184501648, -0.099262043833732605, 0.072471030056476593, 0.085832320153713226, -0.11102632433176041, 0.078550286591053009, -0.026577867567539215, -0.078499801456928253, -0.037496939301490784, -0.013639890588819981, 0.13049982488155365, 0.012244194746017456, -0.0012149510439485312, 0.12288179993629456, -0.10546728223562241, 0.025436786934733391, -0.062217079102993011, 0.033615034073591232, 0.010748052969574928, 0.051916476339101791, 0.054973553866147995, 0.13041768968105316, -0.022920101881027222, 0.09434085339307785, -0.063658595085144043, 0.017553050071001053, 0.00092029571533203125, -0.070330075919628143, -0.014652805402874947, -0.11865409463644028, 0.040095165371894836, 0.11340571939945221, -0.11180093139410019, -0.00039255490992218256, -0.0083302175626158714, 0.097535781562328339, 0.12218554317951202, 0.10924240946769714, -0.14283238351345062, 0.076514489948749542, -0.1093728169798851, 0.0022406280040740967, -0.018653078004717827, -0.038120601326227188, 0.13849332928657532, -0.0025050013791769743, -0.10223602503538132, 0.1541329026222229, 0.10450804978609085, -0.025890374556183815, 0.062311675399541855, -0.051230087876319885, 0.074152290821075439, 0.023548483848571777, -0.064832344651222229, 0.13735805451869965, -0.12999619543552399, -0.58800047636032104, -0.62832659482955933, -0.51367765665054321, -0.54240089654922485, -0.083347544074058533, -0.55950748920440674, -0.60194069147109985, -0.46642857789993286, -0.4579833447933197, -0.029685348272323608, -0.0042996825650334358, 0.11316811293363571, -0.047817546874284744, 0.12361647933721542, -0.129759281873703, 0.066082246601581573, 0.049721520394086838, -0.059065338224172592, 0.052458178251981735, -0.052693039178848267, 0.0078103202395141125, 0.10062436759471893, 0.13840281963348389, -0.0062996372580528259, 0.023616090416908264, 0.095205157995223999, 0.098850756883621216, -0.054705630987882614, 0.069058731198310852, -0.028311751782894135, -0.045876074582338333, -0.11160268634557724, -0.10435464233160019, -0.021812492981553078, 0.10874272882938385, -0.065151624381542206, 0.062937483191490173, -0.072037555277347565, -0.079904995858669281, 0.081848025321960449, -0.11460006237030029, -0.04313451424241066, 0.042649295181035995, 0.057140961289405823, -0.057008378207683563, -0.081350699067115784, 0.020000874996185303, 0.00092841667355969548, 0.072726994752883911, -0.098920151591300964, 0.053567733615636826, -0.06426788866519928, 0.1466846764087677, 0.16432484984397888, 0.029976993799209595, 0.15897218883037567, -0.0013221257831901312, 0.12162752449512482, -0.063012979924678802, 0.055029496550559998, 0.10654997825622559, 0.13618527352809906, -0.094031341373920441, -0.059604339301586151, -0.058273844420909882, -0.1155359223484993, -0.20209144055843353, -0.18487925827503204, -0.21965275704860687, 0.11623528599739075, -0.19757193326950073, -0.21568374335765839, -0.046493116766214371, -0.097302302718162537, -0.12638656795024872, -0.1721990704536438, -0.1235383078455925, -0.1681806743144989, -0.00031798335839994252, -0.11852575838565826, -0.09847848117351532, -0.15012359619140625, -0.18002212047576904, -0.21162062883377075, -0.063711501657962799, -0.19567233324050903, -0.28940752148628235, -0.085064582526683807, -0.26389512419700623, 0.04362797737121582, -0.064932063221931458, -0.0011190756922587752, 0.06503402441740036, 0.070079602301120758, -0.060440808534622192, 0.052356671541929245, 0.090192593634128571, -0.16454295814037323, 0.061426270753145218, 0.0038964748382568359, -0.072995506227016449, 0.060104373842477798, 0.095223002135753632, -0.010001256130635738, -0.083786249160766602, -0.1001933291554451, -0.088042236864566803, 0.0063671395182609558, 0.023835945874452591, 0.12908454239368439, -0.082097575068473816, -0.064368695020675659, 0.116883784532547, 0.089170962572097778, -0.048659570515155792, -0.069168433547019958, -0.063503541052341461, -0.025065284222364426, 0.044512338936328888, 0.090647712349891663, 0.070075184106826782, 0.070585370063781738, -0.025252629071474075, 0.030610445886850357, 0.10846142470836639, 0.050738751888275146, -0.0462498739361763, -0.030362501740455627, -0.075536623597145081, 0.071596801280975342, 0.062710851430892944, 0.051426742225885391, 0.090068109333515167, 0.041482310742139816, 0.092388421297073364, 0.12062183022499084, -0.091384090483188629, -0.066530771553516388, 0.11500952392816544, 0.044755950570106506, 0.036077331751585007, -0.084056518971920013, 0.11370571702718735, 0.11045209318399429, 0.080563664436340332, 0.16029569506645203, 0.13459852337837219, 0.16544285416603088, 0.08622567355632782, 0.072749331593513489, 0.16201549768447876, -0.077639944851398468, -0.067084290087223053, -0.056830212473869324, -0.056751757860183716, 
  0.10376562178134918, 0.044455680996179581, 0.12073218822479248, 0.043147433549165726, -0.042009927332401276, -0.020929021760821342, -0.039112195372581482, -0.078092411160469055, -0.036176629364490509, -0.088497132062911987, 0.10133007168769836, -0.075849026441574097, -0.03561675176024437, -0.042414948344230652, -0.12385201454162598, 0.022241495549678802, 0.021346811205148697, -0.05363074317574501, -0.029410798102617264, 0.088587179780006409, -0.029685122892260551, 0.12519857287406921, 0.039104089140892029, 0.020528806373476982, -0.077473387122154236, -0.039513535797595978, 0.025478163734078407, 0.0085330875590443611, -0.063097618520259857, 0.085613325238227844, -0.038222178816795349, 0.1161966398358345, 0.11862716823816299, 0.080961070954799652, -0.060513034462928772, -0.029458371922373772, 0.024930277839303017, 0.047633230686187744, 0.0013268254697322845, -0.068470612168312073, 0.11309684813022614, 0.06080365926027298, 0.016733285039663315, 0.038366705179214478, 0.086684644222259521, -0.048926349729299545, 0.0015637049218639731, -0.12282680720090866, -0.059850554913282394, 0.0054913610219955444, -0.057213310152292252, -0.021564628928899765, -0.033010873943567276, -0.074485726654529572, 0.12128378450870514, 0.24946065247058868, 0.34632396697998047, 0.43470478057861328, 0.40773701667785645, -0.050442062318325043, 0.28253650665283203, 0.31139424443244934, 0.37438914179801941, 0.22201240062713623, -0.025328062474727631, 0.40029430389404297, 0.29614505171775818, 0.2368614673614502, 0.28398993611335754, 0.0082323253154754639, -0.043941188603639603, 0.049079786986112595, 0.022126693278551102, -0.031931068748235703, 0.08543810248374939, 0.042457681149244308, -0.016006285324692726, 0.051701735705137253, -0.078510008752346039, -0.023571193218231201, -0.22157706320285797, -0.17470504343509674, -0.22917890548706055, -0.33577060699462891, -0.12446226924657822, -0.13637915253639221, -0.26112249493598938, -0.32560485601425171, -0.28126981854438782, -0.06738889217376709, -0.05065656453371048, -0.081145197153091431, -0.13731822371482849, 0.017675228416919708, 0.12765978276729584, -0.16962525248527527, 0.034739084541797638, -0.095583498477935791, 0.076802708208560944, -0.069620341062545776, -0.1043393462896347, -0.11678819358348846, -0.061681851744651794, -0.065356947481632233, -0.050682783126831055, -0.06700308620929718, -0.16300955414772034, -0.021884029731154442, 0.083917371928691864, -0.024273313581943512, -0.080389149487018585, -0.028328826650977135, -0.015751875936985016, -0.087252058088779449, -0.10157927125692368, 0.000262161047430709, -0.17009615898132324, -0.042711369693279266, -0.00066662713652476668, 0.10946683585643768, 0.082846246659755707, -0.040652498602867126, 0.073684446513652802, -0.11376883834600449, -0.12526459991931915, -0.014474136754870415, -0.042686142027378082, 0.090667188167572021, -0.039047427475452423, -0.093030139803886414, -0.081717289984226227, 0.091880835592746735, -0.10482782870531082, 0.1173873171210289, 0.023000642657279968, 0.048858366906642914, -0.052675105631351471, 0.083920620381832123, -0.12060128897428513, -0.042409144341945648, 0.0073918034322559834, 0.075803585350513458, 0.12286446243524551, -0.0489487424492836, 0.084236368536949158, 0.10390574485063553, -0.10213501006364822, -0.039404034614562988, 0.040039606392383575, -0.11860433220863342, 0.034741770476102829, 0.22058013081550598, 0.21488922834396362, 0.13039639592170715, 0.0341683030128479, 0.065372824668884277, 0.20884528756141663, -0.017304930835962296, 0.21966007351875305, -0.09941023588180542, 0.072780109941959381, 0.010106572881340981, -0.13417844474315643, -0.11057326942682266, 0.025343060493469238, 0.045159045606851578, -0.050690051168203354, 0.061252754181623459, -0.017064481973648071, 0.042959153652191162, 0.12836512923240662, 0.062182281166315079, 0.040853057056665421, 0.046124178916215897, -0.013484470546245575, 0.086658351123332977, 0.12957330048084259, -0.084317021071910858, -0.095972694456577301, -0.054957911372184753, 0.090526454150676727, 0.12643437087535858, -0.015832735225558281, -0.11280597746372223, -0.026322275400161743, 0.053593344986438751, 0.013980858027935028, -0.12145651131868362, 0.028075408190488815, -0.041723877191543579, -0.025193585082888603, -0.14946456253528595, -0.0026809682603925467, 0.015831658616662025, -0.046124517917633057, 0.089052937924861908, -0.0082596363499760628, 0.074648164212703705, 0.0034312577918171883, 0.062249720096588135, -0.048479441553354263, -0.13873587548732758, 0.064621329307556152, 0.0059959725476801395, -0.042012259364128113, 0.012746519409120083, 0.030882298946380615, -0.11993022263050079, 0.0164065882563591, 0.024294540286064148, -0.11357510089874268, 0.10544972121715546, -0.024598404765129089, -0.10981555283069611, -0.096806764602661133, -0.084829092025756836, -0.011725879274308681, 0.032233934849500656, 0.021902777254581451, -0.078401222825050354, -0.031441017985343933, -0.013191180303692818, 0.077753558754920959, 0.013347908854484558, -0.12356293946504593, 0.022706469520926476, -0.073816083371639252, -0.093833692371845245, 0.048543810844421387, -0.044089488685131073, 0.053463850170373917, 0.0060974974185228348, -0.16480860114097595, 0.059642720967531204, 0.019358977675437927, -0.054903376847505569, -0.092282600700855255, 0.078071080148220062, -0.18383921682834625, 0.013163045048713684, -0.026752451434731483, 0.095488965511322021, 0.0025368425995111465, -0.065647333860397339, -0.048486985266208649, -0.021848203614354134, 0.024123860523104668, 0.073024280369281769, 0.021654875949025154, -0.0025867074728012085, 0.0947304368019104, 0.068558812141418457, -0.071115508675575256, -0.047922275960445404, 0.13156037032604218, -0.04537525400519371, 0.066037438809871674, 0.090117864310741425, 0.11325179785490036, -0.041436940431594849, -0.10350746661424637, -0.034151624888181686, -0.063355252146720886, 0.065736576914787292, -0.059743180871009827, 0.041935302317142487, 0.063387304544448853, 0.04261460155248642, -0.043612159788608551, 0.011024877429008484, -0.0044256970286369324, -0.11233941465616226, -0.050155956298112869, -0.033400271087884903, -0.044011197984218597, 0.038795635104179382, 0.02134338766336441, 0.12159405648708344, -0.06519009917974472, -0.051689326763153076, 0.11338213086128235, -0.066751174628734589, -0.008379768580198288, 0.02132512629032135, 0.0061695873737335205, -0.09569162130355835, -0.046977497637271881, -0.026698688045144081, 0.11612747609615326, -0.068741992115974426, 0.0076985671184957027, 0.086487002670764923, 0.11601812392473221, -0.027378762140870094, 0.12925387918949127, 0.060065478086471558, 0.028930345550179482, 0.082291819155216217, 0.10529034584760666, -0.11402503401041031, 0.13621151447296143, -0.025066826492547989, -0.020586684346199036, -0.10572206974029541, -0.082251176238059998, 
  0.084042824804782867, 0.090830780565738678, -0.099479712545871735, -0.0027509825304150581, -0.010643273591995239, 0.020986311137676239, 0.087952889502048492, 0.033336758613586426, 0.065989688038825989, 0.128960981965065, 0.15064418315887451, 0.14753152430057526, 0.11154000461101532, 0.12439733743667603, 0.10801491141319275, 0.10359404236078262, 0.011830218136310577, -0.076316215097904205, -0.083033330738544464, -0.086471155285835266, -0.034780479967594147, -0.087278746068477631, -0.083246819674968719, -0.01454293355345726, -0.068115010857582092, -0.2201264351606369, 0.030050836503505707, -0.032868716865777969, -0.082172185182571411, -0.013264976441860199, -0.016271565109491348, 0.011033348739147186, -0.092050284147262573, 0.012970065698027611, 0.080791205167770386, -0.15421149134635925, -0.077541455626487732, -0.13959589600563049, -0.19373804330825806, -0.072966054081916809, -0.029040748253464699, -0.066412866115570068, 0.14517609775066376, 0.029326597228646278, 0.074873432517051697, 0.035225752741098404, -0.082390084862709045, 0.13481594622135162, 0.15414786338806152, 0.058000087738037109, -0.055418252944946289, -0.024106511846184731, 0.049627512693405151, 0.002431224100291729, 0.033329278230667114, -0.16445128619670868, -0.083143740892410278, -0.004319394938647747, 0.074322022497653961, 0.10818392038345337, -0.015875218436121941, -0.10042303055524826, -0.038489937782287598, 0.055236123502254486, -0.11727245897054672, -0.22530817985534668, -0.23833420872688293, -0.19821399450302124, -0.062182523310184479, 0.032408386468887329, 0.13241243362426758, 0.11179351061582565, -0.083562619984149933, 0.076985634863376617, -0.11751553416252136, 0.13813957571983337, -0.047220360487699509, -0.040545146912336349, -0.10561562329530716, 0.072600319981575012, 0.12779194116592407, 0.071864418685436249, 0.017211144790053368, -0.060240387916564941, 0.030396237969398499, 0.16480803489685059, 0.075298264622688293, 0.16598758101463318, 0.15694883465766907, -0.13156341016292572, -0.07775261253118515, -0.057648628950119019, 0.036030799150466919, -0.061876248568296432, -0.11694279313087463, 0.10138469189405441, 0.037703253328800201, -0.068679057061672211, 0.019523603841662407, -0.11732484400272369, 0.12723366916179657, -0.0069365035742521286, 0.072863467037677765, 0.051699455827474594, 0.10619519650936127, 0.15630267560482025, -0.059938881546258926, 0.1407817155122757, 0.15404626727104187, -0.12444019317626953, 0.13244864344596863, 0.052572652697563171, -0.029827486723661423, -0.051567427814006805, 0.080062925815582275, 0.082457385957241058, -0.024661945179104805, 0.076818905770778656, 0.0074670016765594482, 0.064488232135772705, -0.044998113065958023, 0.088003858923912048, 0.061457019299268723, -0.02282688207924366, 0.11045397818088531, 0.003352313069626689, 0.078635036945343018, -0.10868264734745026, -0.14911918342113495, 0.10838042199611664, 0.029005654156208038, -0.052007075399160385, 0.05659179762005806, -0.095922902226448059, -0.12652245163917542, 0.1153847873210907, 0.0041158385574817657, 0.077447980642318726, -0.10269780457019806, -0.12113447487354279, -0.085717722773551941, -0.054943043738603592, 0.11805023998022079, 0.010025384835898876, -0.10121612250804901, 0.050795875489711761, 0.1156921312212944, 0.00080008321674540639, 0.046433217823505402, -0.11255402863025665, 0.0098504442721605301, -0.0012468498898670077, -0.10359697043895721, -0.16244284808635712, -0.060419872403144836, -0.096682906150817871, 0.017677970230579376, -0.13196951150894165, -0.1449662446975708, -0.058551952242851257, 0.10522855073213577, 0.10777860134840012, -0.009167209267616272, -0.098119370639324188, 0.03033408522605896, 0.043483283370733261, 0.06549409031867981, -0.12637750804424286, 0.059685539454221725, -0.12372040003538132, 0.073890969157218933, -0.13828311860561371, 0.009480099193751812, -0.11105093359947205, -0.0094226077198982239, 0.0027141906321048737, 0.0042388853617012501, 0.043492671102285385, -0.16857795417308807, -0.076852813363075256, 0.04920944944024086, -0.12664796411991119, -0.016857044771313667, 0.071699798107147217, -0.021571405231952667, -0.10661816596984863, 0.019777677953243256, -0.0269344262778759, 0.098825529217720032, -0.11282606422901154, 0.085188247263431549, 0.1519177258014679, 0.10853984951972961, 0.12806184589862823, 0.10454919934272766, 0.082394078373908997, 0.12891733646392822, -0.02925247885286808, 0.10113513469696045, 0.0064181685447692871, -0.055738002061843872, -0.021584777161478996, -0.1096571609377861, 0.1188826784491539, 0.10688543319702148, 0.024547044187784195, -0.09440283477306366, 0.0074712899513542652, -0.11186565458774567, 0.051650464534759521, 0.058309648185968399, -0.053478118032217026, 0.034799117594957352, -0.093463979661464691, 0.022767007350921631, 0.0042948741465806961, -0.029790466651320457, 0.025150349363684654, 0.017769649624824524, -0.1089826300740242, 0.016237419098615646, -0.11820711940526962, -0.12406407296657562, -0.10196781903505325, -0.055445574223995209, -0.20788058638572693, -0.056890323758125305, -0.13105817139148712, 0.0062363524921238422, -0.024875394999980927, -0.095586627721786499, 0.0015643433434888721, -0.064528107643127441, 0.094336628913879395, 0.039774239063262939, -0.047524880617856979, -0.080627858638763428, 0.095783889293670654, -0.13408182561397552, -0.025823645293712616, 0.055008307099342346, 0.032496936619281769, -0.10170924663543701, 0.015405580401420593, -0.118923120200634, 0.029129395261406898, -0.10170775651931763, 0.008532780222594738, -0.0015397813403978944, -0.0093714818358421326, -0.12598873674869537, -0.15591630339622498, -0.066860422492027283, 0.063794031739234924, -0.068391665816307068, 0.075350701808929443, -0.14256314933300018, 0.056435313075780869, -0.066894702613353729, -0.041181914508342743, -0.018826257437467575, -0.050022970885038376, 0.035845611244440079, 0.031947270035743713, 0.03201901912689209, 0.056980624794960022, 0.0042473496869206429, -0.064265318214893341, 0.11189592629671097, -0.039105847477912903, -0.11809109896421432, 0.069768510758876801, 0.020284673199057579, -0.1238844022154808, 0.069050461053848267, 0.048672359436750412, 0.016811389476060867, -0.047857526689767838, -0.0020008103456348181, -0.078028768301010132, -0.037191033363342285, -0.115935318171978, 0.067399784922599792, -0.098582126200199127, 0.07164667546749115, -0.063455045223236084, -0.0065473937429487705, 0.097478955984115601, -0.023746179416775703, -0.018041566014289856, 0.1374455988407135, -0.10133817046880722, 0.11393777281045914, -0.057557165622711182, -0.084700137376785278, -0.024302221834659576, -0.09601496160030365, -0.1298808753490448, 0.1272762268781662, 0.10409803688526154, 0.12824720144271851, 0.034872107207775116, -0.019449422135949135, -0.009401857852935791, 0.078058257699012756, 
  -0.088492222130298615, -0.090272866189479828, -0.055179961025714874, -0.098412178456783295, -0.071630284190177917, -0.091975398361682892, -0.11154007166624069, -0.063776463270187378, 0.0055457293055951595, 0.092223092913627625, 0.058250870555639267, 0.11099809408187866, 0.21687138080596924, 0.092410251498222351, -0.0036192536354064941, 0.027997834607958794, -0.009813905693590641, 0.17743326723575592, 0.17409168183803558, -0.018936745822429657, 0.1152326911687851, 0.014707663096487522, 0.030271617695689201, 0.17017537355422974, 0.11233721673488617, -0.10155379772186279, -0.2950909435749054, -0.24700650572776794, -0.095687851309776306, -0.11905819177627563, -0.28527575731277466, -0.25938564538955688, -0.16706041991710663, -0.29140806198120117, -0.089677199721336365, -0.25024014711380005, -0.054739672690629959, -0.19153827428817749, -0.047689031809568405, -0.13015872240066528, 0.12327452003955841, -0.053514283150434494, -0.035539612174034119, -0.032229617238044739, 0.062598183751106262, 0.16114826500415802, 0.020818497985601425, 0.072312653064727783, 0.05383942648768425, -0.10060539841651917, 0.13906802237033844, -0.054798711091279984, 0.076174817979335785, -0.073799297213554382, 0.052703574299812317, -0.0073558655567467213, -0.12461862713098526, 0.041977297514677048, 0.11451893299818039, 0.087308913469314575, 0.033549867570400238, -0.13324205577373505, -0.14164167642593384, 0.10445274412631989, -0.065424539148807526, -0.13029614090919495, -0.11784576624631882, -0.18077656626701355, 0.12637396156787872, 0.020876228809356689, 0.0891914963722229, 0.036435142159461975, 0.0022074200678616762, 0.10768352448940277, -0.12919209897518158, -0.13978292047977448, -0.076236851513385773, 0.10126509517431259, -0.1169850155711174, -0.11298799514770508, -0.22373992204666138, -0.13818874955177307, -0.19045498967170715, -0.24495279788970947, -0.0086660608649253845, -0.16576948761940002, -0.10621194541454315, -0.31182238459587097, -0.1825372725725174, 0.094299539923667908, -0.109763003885746, 0.091819904744625092, 0.08057083934545517, 0.14944644272327423, -0.027505837380886078, 0.032764364033937454, -0.036392517387866974, 0.041034922003746033, -0.031071282923221588, -0.12562215328216553, 0.08780217170715332, -0.063440337777137756, 0.072944112122058868, 0.11512002348899841, 0.10343398153781891, 0.040259812027215958, 0.055118244141340256, 0.061831776052713394, 0.10386594384908676, 0.08038918673992157, 0.062093582004308701, -0.092390738427639008, -0.049922361969947815, 0.02541394904255867, 0.0092471688985824585, -0.071769468486309052, -0.004371721763163805, -0.03576180711388588, 0.15435963869094849, -0.04870336502790451, -0.093902036547660828, 0.014079849235713482, 0.014104186557233334, -0.080059617757797241, 0.036344379186630249, -0.094193018972873688, -0.059140011668205261, 0.0086626457050442696, -0.13417577743530273, 0.11643925309181213, 0.067754961550235748, 0.024160875007510185, 0.052281789481639862, -0.06058783084154129, -0.029483743011951447, -0.034530710428953171, 0.14792850613594055, 0.055515449494123459, 0.066187798976898193, 0.11136260628700256, -0.10520429164171219, 0.0061809183098375797, 0.054441392421722412, -0.078180424869060516, -0.010249495506286621, 0.048841003328561783, 0.032602801918983459, -0.020635791122913361, -0.071833409368991852, -0.067110195755958557, -0.19047793745994568, -0.23777562379837036, -0.24882557988166809, -0.40088769793510437, -0.020415447652339935, -0.30822494626045227, -0.24861612915992737, -0.31002327799797058, -0.31043270230293274, -0.084517240524291992, -0.063263453543186188, -0.051787368953227997, 0.066325090825557709, 0.031405854970216751, 0.067303627729415894, -0.063420452177524567, 0.014565050601959229, 0.038419745862483978, -0.054730631411075592, 0.038805112242698669, -0.00062394468113780022, -0.089839071035385132, -0.11758027970790863, 0.013765974901616573, -0.09234301745891571, -0.086224064230918884, 0.060749474912881851, -0.015520523302257061, -0.10436730831861496, 0.035787835717201233, -0.019586481153964996, -0.01768428273499012, -0.0088452259078621864, 0.05356106162071228, 0.097212746739387512, -0.057904735207557678, -0.046955712139606476, 0.0040249237790703773, 0.0090806670486927032, 0.11582767963409424, 0.070519104599952698, -0.10658881068229675, 0.1196037232875824, -0.062742650508880615, -0.033796064555644989, 0.055060718208551407, -0.09526391327381134, 0.086336344480514526, -0.033044051378965378, -0.04155789315700531, -0.10474705696105957, 0.10945518314838409, -0.086513713002204895, 0.072884887456893921, 0.060846477746963501, -0.013807478360831738, 0.10697451233863831, 0.10630948841571808, 0.13942940533161163, -0.099985837936401367, 0.0010836857836693525, -0.075793616473674774, 0.070574633777141571, -0.0030396375805139542, 0.047044038772583008, -0.13302081823348999, -0.25689274072647095, -0.21427534520626068, -0.063178114593029022, 0.093304634094238281, -0.10563584417104721, -0.24244304001331329, -0.24209444224834442, -0.096232116222381592, -0.032163269817829132, -0.26497954130172729, -0.078423105180263519, -0.093146458268165588, -0.10902135074138641, -0.026499323546886444, -0.25177609920501709, -0.063330970704555511, -0.063821591436862946, -0.24273240566253662, -0.1083981916308403, -0.061359819024801254, -0.20923194289207458, -0.11469259858131409, -0.026854794472455978, 0.071104928851127625, -0.073938809335231781, 0.081098064780235291, -0.047258932143449783, -0.014276831410825253, -0.12729746103286743, 0.087608665227890015, -0.076987773180007935, -0.089339673519134521, 0.17094139754772186, 0.10601601004600525, -0.13658256828784943, -0.15732689201831818, -0.13238921761512756, -0.092471502721309662, -0.079703859984874725, -0.10316416621208191, -0.18797580897808075, -0.12698692083358765, 0.0067101330496370792, 0.017714351415634155, -0.1288345605134964, -0.056693490594625473, 0.03238474577665329, -0.11038025468587875, -0.068346165120601654, -0.10362724959850311, -0.022542873397469521, -0.096884578466415405, 0.11442412436008453, -0.032753206789493561, -0.10064286738634109, 0.0087469499558210373, 0.05321512371301651, 0.083389393985271454, 0.080032423138618469, -0.022186795249581337, 0.019235419109463692, 0.12804166972637177, 0.10524877160787582, 0.085767865180969238, 0.039982572197914124, 0.013273811899125576, 0.034551769495010376, 0.030024114996194839, -0.018549695611000061, -0.068569354712963104, -0.05435546487569809, -0.098527587950229645, -0.10788684338331223, 0.025328442454338074, 0.14511200785636902, -0.099679715931415558, -0.031931456178426743, -0.10202322155237198, -0.04930201917886734, -0.061161119490861893, 0.041074264794588089, -0.039776232093572617, 0.093679711222648621, 0.028686732053756714, 0.01008958276361227, 0.052156142890453339, 0.018400432541966438, 0.021179378032684326, 0.05884067714214325, 
  0.12602861225605011, 0.059455618262290955, -0.10291891545057297, 0.076464347541332245, -0.0079988986253738403, -0.097254112362861633, 0.036709092557430267, 0.063995420932769775, -0.0003384908486623317, 0.046273171901702881, -0.19108261168003082, -0.19984970986843109, 0.028068799525499344, -0.14220826327800751, 0.092907547950744629, -0.20545549690723419, -0.18335746228694916, 0.050525624305009842, -0.11723931878805161, -0.1023758202791214, -0.030282504856586456, -0.073467880487442017, -0.12288603931665421, -0.07089398056268692, 0.076745226979255676, 0.095205888152122498, 0.11018139868974686, 0.22891233861446381, 0.050239607691764832, 0.02894313633441925, 0.16946230828762054, 0.21961070597171783, 0.16827227175235748, 0.017996875569224358, 0.059178397059440613, 0.2370787113904953, 0.1058269664645195, 0.13349424302577972, 0.17098186910152435, 0.059146448969841003, -0.092149674892425537, 0.0019249457400292158, -0.093555368483066559, -0.083155922591686249, -0.049776129424571991, -0.039925850927829742, 0.023460134863853455, -0.056368283927440643, -0.10955504328012466, -0.116485595703125, 0.071943074464797974, 0.023228803649544716, 0.02577635832130909, -0.034485809504985809, 0.099118605256080627, -0.036948040127754211, 0.038498260080814362, -0.13081040978431702, -0.032222077250480652, -0.048077963292598724, -0.070013292133808136, -0.084125436842441559, 0.10234755277633667, -0.089019238948822021, 0.060838073492050171, 0.078729279339313507, -0.1050889864563942, 0.034477595239877701, -0.010307718999683857, 0.1184283047914505, 0.0045128636993467808, -0.0014721534680575132, 0.035218935459852219, 0.04461723193526268, 0.052807867527008057, 0.053113952279090881, 0.12075177580118179, -0.014888846315443516, 0.0024710404686629772, -0.021250039339065552, 0.45071020722389221, 0.44530424475669861, 0.33412823081016541, 0.37660643458366394, -0.0077637732028961182, 0.42525899410247803, 0.27499791979789734, 0.43891739845275879, 0.38435167074203491, 0.04358123242855072, 0.050665482878684998, 0.068659745156764984, -0.010283918119966984, -0.097235448658466339, 0.12657560408115387, -0.076564952731132507, 0.10202842950820923, 0.020945092663168907, -0.017093444243073463, -0.12561492621898651, 0.051978401839733124, 0.063701465725898743, -0.021606655791401863, 0.048547543585300446, 0.042974084615707397, -0.0074956854805350304, 0.091556243598461151, 0.022924972698092461, -0.095727778971195221, 0.037314713001251221, -0.012793535366654396, -0.051781650632619858, -0.034323778003454208, 0.10252771526575089, -0.058183327317237854, -0.050814200192689896, -0.01506410725414753, -0.12610349059104919, 0.041996266692876816, 0.01312217116355896, -0.0081014977768063545, -0.040436852723360062, 0.12224619835615158, -0.045798841863870621, -0.069257944822311401, 0.085617505013942719, -0.081840671598911285, 0.0037318093236535788, 0.029727103188633919, -0.049998953938484192, -0.084301762282848358, 0.03903564065694809, 0.1102570965886116, 0.0062579666264355183, -0.085753530263900757, 0.061168070882558823, -0.15175984799861908, 0.032006699591875076, -0.026550432667136192, 0.10465514659881592, -0.024180902168154716, -0.071381449699401855, 0.0039829420857131481, -0.040074754506349564, 0.11193978786468506, -0.14224256575107574, -0.096605837345123291, -0.1512250155210495, 0.037072978913784027, 0.060242697596549988, 0.57043004035949707, 0.61612343788146973, 0.58203470706939697, 0.71115767955780029, 0.0071447491645812988, 0.71975976228713989, 0.56948530673980713, 0.68401145935058594, 0.55093085765838623, 0.012525051832199097, 0.033501166850328445, -0.032300237566232681, 0.084749750792980194, -0.089564159512519836, -0.095277093350887299, -0.11211810261011124, -0.096540890634059906, -0.033552370965480804, -0.068327046930789948, 0.069341078400611877, -0.010376615449786186, -0.063513025641441345, 0.048021420836448669, 0.11505065858364105, 0.092449009418487549, -0.020970746874809265, 0.0054878005757927895, 0.15594090521335602, -0.02753298357129097, 0.0049373209476470947, 0.08645167201757431, -0.091734342277050018, -0.054496075958013535, -0.071939639747142792, -0.11769654601812363, 0.0073911570943892002, 0.015644241124391556, 0.032353863120079041, 0.036711864173412323, -0.033583864569664001, 0.071072094142436981, 0.088995866477489471, 0.11761344224214554, -0.077716760337352753, -0.032029762864112854, 0.017623696476221085, -0.1192132830619812, -0.057666342705488205, 0.0032957294024527073, 0.04166904091835022, -0.022858047857880592, -0.00018300772353541106, -0.036134608089923859, -0.011208482086658478, -0.05687878280878067, -0.10416122525930405, -0.11128856986761093, 0.091519631445407867, 0.089529745280742645, 0.1064460426568985, 0.071114741265773773, -0.14241673052310944, -0.034475497901439667, -0.054533533751964569, 0.10732024908065796, 0.23248299956321716, 0.27452820539474487, 0.23031225800514221, 0.14231067895889282, -0.0078309029340744019, 0.22954201698303223, 0.042508333921432495, 0.28960645198822021, 0.28348618745803833, 0.10394960641860962, 0.13366198539733887, 0.10291346162557602, 0.07752692699432373, 0.22730152308940887, 0.037330493330955505, 0.23450456559658051, 0.25128701329231262, 0.16942329704761505, 0.28277680277824402, -0.055099934339523315, 0.22333376109600067, 0.31359028816223145, 0.2998146116733551, 0.26317670941352844, 0.086102023720741272, 0.057790976017713547, -0.029263235628604889, -0.020080499351024628, 0.064782217144966125, -0.10417494177818298, 0.1204342395067215, -0.06303723156452179, -0.012735901400446892, -0.025507066398859024, 0.0063368529081344604, 0.073165588080883026, -0.076370663940906525, 0.090701870620250702, 0.01554733794182539, 0.043680459260940552, 0.10460495203733444, -0.016050705686211586, 0.074966169893741608, -0.031507909297943115, 0.051898851990699768, -0.050792869180440903, 0.16396254301071167, 0.02930169366300106, 0.056941155344247818, 0.0040066838264465332, 0.076067902147769928, 0.086370564997196198, 0.072597391903400421, -0.069191478192806244, 0.054735183715820312, -0.080125600099563599, 0.10440796613693237, -0.016870060935616493, 0.0099818678572773933, 0.084005057811737061, -0.039479050785303116, 0.036671753972768784, 0.024080345407128334, -0.00080104049993678927, 0.009270593523979187, -0.011768213473260403, 0.0075515685603022575, -0.025002045556902885, 0.010046384297311306, 0.11155328154563904, -0.060058820992708206, -0.054579164832830429, 0.063971318304538727, -0.097209900617599487, -0.13153347373008728, 0.12635423243045807, -0.019617458805441856, 0.080278627574443817, 0.1175834909081459, 0.071488484740257263, -0.0059908861294388771, -0.07236606627702713, 0.088124893605709076, -0.077748261392116547, -0.1036686971783638, 0.016417084261775017, -0.15406997501850128, 0.07160390168428421, -0.046736892312765121, 0.11340384185314178, 
  -0.034028500318527222, 0.10011302679777145, -0.11628448963165283, 0.11371249705553055, 0.095928847789764404, 0.095863625407218933, 0.06710369884967804, -0.064563080668449402, -0.070431247353553772, 0.11780118942260742, -0.04557693749666214, 0.10900668054819107, 0.023863514885306358, 0.066320650279521942, 0.13177351653575897, -0.027102481573820114, -0.010766942985355854, 0.018935117870569229, -0.10688503831624985, 0.033869326114654541, 0.041022256016731262, 0.096884392201900482, -0.084945537149906158, 0.013240909203886986, -0.11286370456218719, -0.12461452931165695, 0.012867873534560204, 0.092635124921798706, 0.038626737892627716, 0.014377892017364502, 0.072405882179737091, -0.030499998480081558, 0.065568573772907257, 0.058187305927276611, -0.026575349271297455, -0.12771987915039062, -0.10041950643062592, 0.077778153121471405, 0.029983710497617722, 0.057105794548988342, 0.045798603445291519, -0.12188717722892761, -0.13531997799873352, -0.097440868616104126, -0.015805117785930634, 0.052094582468271255, -0.14028948545455933, 0.01152475830167532, 0.044531002640724182, -0.02178124338388443, -0.029325198382139206, 0.085330158472061157, 0.067846059799194336, -5.015849819756113e-05, -0.00068944692611694336, -0.042274829000234604, 0.03820168599486351, -0.13316050171852112, -0.11258681863546371, 0.081818476319313049, 0.11465901136398315, -0.0060300161130726337, -0.024179372936487198, -0.0614449642598629, 0.13019488751888275, -0.094408050179481506, 0.03906375914812088, -0.12925973534584045, -0.088851943612098694, -0.06387060135602951, -0.023669375106692314, -0.033364295959472656, 0.07201269268989563, -0.010560480877757072, -0.089829161763191223, 0.078450731933116913, -0.028404040262103081, -0.032094128429889679, 0.050956949591636658, -0.0091509222984313965, 0.11706822365522385, 0.0077067581005394459, -0.11603552103042603, -0.053821969777345657, 0.084341391921043396, 0.044778060168027878, 0.10715563595294952, 0.1109967976808548, 0.1208067387342453, -0.026008524000644684, -0.057540018111467361, 0.049457322806119919, -0.1005113273859024, -0.0084145059809088707, 0.11692650616168976, -0.12332036346197128, -0.025593465194106102, -0.061752147972583771, 0.064436919987201691, -0.12047483026981354, -0.03657793253660202, 0.10333333164453506, -0.10744398087263107, -0.090951822698116302, -0.0059535205364227295, -0.059264522045850754, -0.11563222855329514, -0.037148237228393555, -0.045423593372106552, -0.010421201586723328, -0.0039158016443252563, -0.066613197326660156, 0.045761279761791229, 0.029413968324661255, 0.040753930807113647, -0.10959097743034363, 0.033174034208059311, 0.027064509689807892, 0.025268306955695152, -0.0084812790155410767, 0.018723031505942345, -0.10161624848842621, -0.028008067980408669, -0.021790886297821999, -0.0037000924348831177, 0.057735070586204529, -0.00051002431428059936, -0.12741203606128693, 0.052248936146497726, 0.12239848077297211, -0.069953598082065582, 0.0030836022924631834, -0.038972537964582443, -0.0048162480816245079, -0.038939334452152252, -0.13520848751068115, 0.10259097814559937, -0.077721312642097473, 0.05459178239107132, 0.082145437598228455, 0.041250452399253845, 0.069363437592983246, 0.030529526993632317, -0.11866623908281326, 0.068654358386993408, -0.03489743173122406, -0.11868340522050858, -0.1054084375500679, 0.064884848892688751, 0.023346036672592163, -0.02399766631424427, -0.016916327178478241, 0.081170663237571716, -0.057589083909988403, 0.11625094711780548, 0.024413108825683594, -0.0094825178384780884, -0.14301623404026031, -0.016415169462561607, -0.056350775063037872, -0.065968729555606842, 0.056871749460697174, 0.016728146001696587, 0.11262816190719604, -0.12112494558095932, -0.11232764273881912, 0.081801183521747589, -0.035213571041822433, -0.031973075121641159, 0.091388508677482605, -0.061154354363679886, -0.072496384382247925, 0.035488855093717575, -0.085995621979236603, 0.1147913932800293, 0.072451859712600708, -0.049946844577789307, -0.071174845099449158, 0.048695031553506851, 0.014506667852401733, -0.061378050595521927, 0.014843274839222431, -0.0011385836405679584, -0.03829275444149971, -0.043182678520679474, 0.027582848444581032, -0.055069122463464737, 0.11234058439731598, -0.036686837673187256, 0.10811018943786621, -0.046054840087890625, -0.045159094035625458, -0.058222405612468719, -0.0029798743780702353, -0.11032377928495407, -0.13408771157264709, 0.11396465450525284, 0.09732210636138916, 0.016064904630184174, 0.052551329135894775, 0.10503366589546204, -0.050070907920598984, -0.11796502768993378, -0.0059929382987320423, -0.096508100628852844, -0.08403468132019043, 0.1055610179901123, -0.04352569580078125, 0.092960178852081299, 0.12451769411563873, 0.011573135852813721, 0.014504708349704742, 0.0047036763280630112, -0.023852318525314331, -0.043587580323219299, 0.095815815031528473, -0.011486929841339588, -0.040134385228157043, 0.060053139925003052, 0.080946877598762512, 0.06871052086353302, -0.099474117159843445, -0.008124304935336113, 0.052256710827350616, 0.0058449208736419678, 0.049366671591997147, -0.075937353074550629, 0.042005617171525955, -0.00324672507122159, 0.084160909056663513, -0.056339416652917862, -0.087264947593212128, -0.11041321605443954, 0.026232112199068069, 0.052706018090248108, 0.0081945080310106277, -0.12855617702007294, 0.086227729916572571, -0.13910272717475891, -0.11128749698400497, 0.11158208549022675, -0.072217471897602081, 0.11223043501377106, -0.092586152255535126, -0.075015425682067871, 0.044174466282129288, 0.080716550350189209, 0.085810065269470215, -0.10573234409093857, 0.10678887367248535, 0.057936187833547592, -0.080354928970336914, -0.08677363395690918, -0.067505970597267151, -0.087209492921829224, -0.043641187250614166, -0.15093167126178741, 0.0035228538326919079, 0.045566432178020477, 0.036151215434074402, -0.14975324273109436, 0.099648326635360718, -0.069685168564319611, -0.00090225040912628174, 0.052961021661758423, -0.12998563051223755, -0.0051271440461277962, -0.13176639378070831, -0.14565679430961609, -0.10193440318107605, -0.062673524022102356, -0.085502505302429199, 0.094642996788024902, -0.098926641047000885, -0.090450413525104523, -0.0080318190157413483, 0.075096473097801208, 0.097646981477737427, 0.10084393620491028, -0.10436387360095978, 0.06653604656457901, -0.034024648368358612, -0.021215792745351791, -0.030826626345515251, -0.034385755658149719, -0.14246487617492676, 0.039782680571079254, 0.055694159120321274, 0.0333266481757164, 0.01635405421257019, -0.020962994545698166, 0.039552140980958939, -0.030177168548107147, -0.13348907232284546, -0.061161205172538757, -0.025056073442101479, 0.015080812387168407, 0.0073169670067727566, -0.0085452226921916008, -0.029678210616111755, -0.03897659108042717, -0.13869749009609222, -0.035131517797708511, -0.046753723174333572, 0.031583264470100403, 
  -0.050298698246479034, 0.01116456463932991, 0.089093990623950958, -0.068302460014820099, -0.10580862313508987, -0.020473867654800415, 0.042001388967037201, -0.035550408065319061, 0.026560556143522263, 0.1086103618144989, 0.087226308882236481, -0.055930871516466141, 0.091561399400234222, 0.035200733691453934, 0.10940222442150116, -0.029605621472001076, -0.10048705339431763, 0.10677555203437805, 0.13146552443504333, -0.11066576838493347, 0.010253815911710262, -0.079563751816749573, -0.10450573265552521, 0.14638204872608185, -0.019504457712173462, 0.14495208859443665, -0.072519443929195404, -0.027900258079171181, -0.030356977134943008, -0.025157205760478973, 0.014736109413206577, -0.042000818997621536, 0.07899833470582962, 0.14460624754428864, 0.011091187596321106, 0.057310931384563446, 0.11717669665813446, 0.093595623970031738, 0.0063420697115361691, -0.11290177702903748, 0.018063671886920929, 0.10775109380483627, 0.11878448724746704, -0.12233609706163406, 0.0049969106912612915, -0.095492638647556305, 0.023576825857162476, -0.092729605734348297, 0.044084452092647552, 0.084053665399551392, -0.091664858162403107, 0.059988841414451599, -0.0060293860733509064, -0.01151118241250515, 0.065509974956512451, 0.1598874032497406, 0.17113982141017914, 0.078765019774436951, -0.17704729735851288, 0.11550477147102356, 0.24188640713691711, 0.21318584680557251, 0.21077495813369751, -0.2452627569437027, -0.071878455579280853, 0.15951906144618988, 0.27291306853294373, 0.20774716138839722, -0.045125458389520645, 0.10083922743797302, 0.043633569031953812, 0.065771162509918213, -0.088642537593841553, -0.16596007347106934, -0.042010180652141571, -0.0074327276088297367, -0.044038940221071243, -0.046376381069421768, -0.13052733242511749, -0.048908554017543793, -0.14785127341747284, -0.37439638376235962, -0.33893686532974243, -0.24684907495975494, -0.059181191027164459, -0.13478735089302063, -0.36735871434211731, -0.19126087427139282, -0.30204921960830688, -0.061529099941253662, -0.13519521057605743, -0.078852266073226929, 0.066445603966712952, -0.11477498710155487, -0.072871729731559753, -0.042752780020236969, -0.012439746409654617, -0.099927604198455811, -0.072085529565811157, -0.074594549834728241, -0.013754233717918396, -0.12160881608724594, -0.02509017288684845, -0.0059924949891865253, 0.023100376129150391, 0.03417569026350975, -0.09303060919046402, 0.089940570294857025, 0.06360713392496109, -0.0469173863530159, 0.025089917704463005, -0.029108965769410133, 0.068680047988891602, 0.061748802661895752, -0.10367441922426224, 0.0034261788241565228, 0.0055706142447888851, -0.087808966636657715, 0.0056916424073278904, -0.10325470566749573, -0.068452842533588409, 0.15316997468471527, -0.090628214180469513, 0.10707714408636093, -0.07637990266084671, -0.090245649218559265, -0.075235813856124878, 0.091093942523002625, -0.036336939781904221, -0.013160653412342072, 0.070067591965198517, 0.14222615957260132, 0.016386222094297409, -0.027647726237773895, -0.015360347926616669, 0.1541154533624649, -0.033004790544509888, -0.014497642405331135, 0.070286892354488373, 0.011939793825149536, 0.05559052899479866, 0.17066031694412231, 0.012467259541153908, 0.0033792578615248203, 0.068283885717391968, 0.065976932644844055, 0.054291177541017532, 0.16259138286113739, 0.074297629296779633, 0.09956696629524231, 0.018384000286459923, -0.043315980583429337, -0.10007307678461075, -0.17503044009208679, 0.11451627314090729, -0.10492070764303207, -0.12703222036361694, -0.16129010915756226, -0.11606342345476151, -0.033778205513954163, -0.12023343145847321, 0.0016666391165927052, -0.00055786914890632033, 0.12240557372570038, -0.086305737495422363, -0.015728583559393883, -0.11948376893997192, 0.041115954518318176, 0.099429354071617126, 0.11545091867446899, 0.053522977977991104, 0.18847927451133728, 0.033135272562503815, 0.18381249904632568, -0.11016134917736053, 0.10819428414106369, 0.093146815896034241, 0.0098904548212885857, 0.020242223516106606, 0.12858442962169647, 0.11768370866775513, -0.001554989954456687, 0.086215987801551819, 0.049119483679533005, -0.048950120806694031, -0.10324545949697495, -0.1307169497013092, -0.050907324999570847, -0.092722199857234955, 0.12762631475925446, -0.10292799025774002, 0.078900657594203949, -0.042919408529996872, 0.0094927037134766579, -0.013571970164775848, -0.092051677405834198, -0.04113398864865303, -0.07202448695898056, -0.030467571690678596, -0.089640192687511444, 0.055982388556003571, -0.0046253865584731102, 0.07691703736782074, 0.07968863844871521, 0.018035084009170532, 0.10793817043304443, -0.0022333643864840269, -0.014878075569868088, 0.010701792314648628, 0.013700574636459351, 0.072365634143352509, 0.056302979588508606, 0.14184257388114929, 0.069798849523067474, 0.12736816704273224, 0.070678681135177612, 0.065940387547016144, 0.053980506956577301, -0.055567394942045212, -0.086615189909934998, -0.035145703703165054, -0.00078690575901418924, 0.13891588151454926, -0.028901215642690659, 0.092076480388641357, 0.041188623756170273, -0.044213201850652695, 0.035289790481328964, 0.072028607130050659, -0.085078723728656769, -0.17608721554279327, -0.19937732815742493, -0.19019284844398499, -0.011349639855325222, -0.019256599247455597, -0.16712749004364014, -0.035683058202266693, -0.1167868971824646, -0.020384248346090317, -0.012684151530265808, 0.13715437054634094, -0.054980829358100891, -0.10747479647397995, -0.088363975286483765, 0.052665367722511292, 0.13670957088470459, -0.088415279984474182, -0.031456753611564636, 0.093735732138156891, -0.064114116132259369, -0.065535202622413635, 0.14636829495429993, 0.039283346384763718, -0.0182083360850811, 0.025026664137840271, 0.16972719132900238, 0.10240693390369415, 0.097465053200721741, 0.16332849860191345, -0.096366174519062042, 0.1447099894285202, 0.18469227850437164, 0.10010717809200287, 0.17179863154888153, -0.095172770321369171, 0.14228241145610809, 0.040193494409322739, -0.053293000906705856, 0.08327348530292511, 0.12907053530216217, -0.041416008025407791, 0.090733282268047333, 0.028967380523681641, -0.099741168320178986, -0.029260441660881042, 0.11149036139249802, 0.064288981258869171, 0.098461233079433441, 0.015299218706786633, 0.12439288198947906, -0.11796674877405167, 0.09320821613073349, -0.10051039606332779, 0.015175512060523033, 0.061865746974945068, -0.062208790332078934, 0.0027539643924683332, 0.11389031261205673, 0.021362075582146645, 0.061670929193496704, 0.0092599298804998398, -0.081322424113750458, 0.13104374706745148, -0.0067712324671447277, -0.071456566452980042, -0.076466977596282959, -0.01053865160793066, -0.079439923167228699, 0.049765221774578094, 0.013056427240371704, -0.085380226373672485, -0.062544994056224823, -0.074440270662307739, 0.15594717860221863, -0.11430659145116806, 
